{"learner":{"attributes":{"best_iteration":"31","best_score":"0.02537832823914109","scikit_learn":"{\"_estimator_type\": \"regressor\"}"},"feature_names":["peak rot acc resultant","peak lin acc resultant","peak rot vel resultant"],"feature_types":["float","float","float"],"gradient_booster":{"model":{"gbtree_model_param":{"num_parallel_tree":"1","num_trees":"41"},"iteration_indptr":[0,1,2,3,4,5,6,7,8,9,10,11,12,13,14,15,16,17,18,19,20,21,22,23,24,25,26,27,28,29,30,31,32,33,34,35,36,37,38,39,40,41],"tree_info":[0,0,0,0,0,0,0,0,0,0,0,0,0,0,0,0,0,0,0,0,0,0,0,0,0,0,0,0,0,0,0,0,0,0,0,0,0,0,0,0,0],"trees":[{"base_weights":[3.057687E-4,-4.5955192E-2,3.6631826E-2,-2.4625884E-2,-2.7594438E-2,4.04703E-2,-6.634146E-3,-2.9905217E-2,-7.0688156E-3,1.9211525E-2,4.7162887E-2,-3.542571E-3,2.0398162E-3,-1.2800246E-3,-1.2399089E-2,2.2523254E-3,-1.2280348E-2,6.1849877E-3,3.5159364E-3,6.1383224E-3,1.778637E-2,1.3485011E-3,-7.5732474E-4,-2.3103247E-3,5.145219E-4,-7.8125304E-5,-4.0413663E-3,1.391925E-3,1.2385421E-5],"categories":[],"categories_nodes":[],"categories_segments":[],"categories_sizes":[],"default_left":[0,0,0,0,0,0,0,0,0,0,0,0,0,0,0,0,0,0,0,0,0,0,0,0,0,0,0,0,0],"id":0,"left_children":[1,3,5,-1,7,9,11,13,15,17,19,-1,21,23,-1,-1,25,-1,27,-1,-1,-1,-1,-1,-1,-1,-1,-1,-1],"loss_changes":[2.1007453E-1,2.5161058E-2,1.2967691E-2,0E0,1.0299534E-3,4.7176033E-3,5.6926406E-4,1.2163188E-2,1.2966178E-3,1.6685855E-4,8.827485E-3,0E0,1.4638464E-4,3.7374665E-4,0E0,0E0,1.2560107E-4,0E0,3.0281117E-5,0E0,0E0,0E0,0E0,0E0,0E0,0E0,0E0,0E0,0E0],"parents":[2147483647,0,0,1,1,2,2,4,4,5,5,6,6,7,7,8,8,9,9,10,10,12,12,13,13,16,16,18,18],"right_children":[2,4,6,-1,8,10,12,14,16,18,20,-1,22,24,-1,-1,26,-1,28,-1,-1,-1,-1,-1,-1,-1,-1,-1,-1],"split_conditions":[5.162448E0,3.7158108E0,1.839952E2,-2.4625884E-2,5.0211525E0,5.819106E0,1.9460599E2,1.0370763E2,1.0596608E2,5.791785E0,2.6664827E1,-3.542571E-3,2.0218398E2,7.90368E1,-1.2399089E-2,2.2523254E-3,5.027631E0,6.1849877E-3,1.2225694E2,6.1383224E-3,1.778637E-2,1.3485011E-3,-7.5732474E-4,-2.3103247E-3,5.145219E-4,-7.8125304E-5,-4.0413663E-3,1.391925E-3,1.2385421E-5],"split_indices":[0,0,1,0,0,0,1,1,1,0,2,0,1,1,0,0,0,0,1,0,0,0,0,0,0,0,0,0,0],"split_type":[0,0,0,0,0,0,0,0,0,0,0,0,0,0,0,0,0,0,0,0,0,0,0,0,0,0,0,0,0],"sum_hessian":[1.15E2,5E1,6.5E1,1.1E1,3.9E1,6E1,5E0,3.3E1,6E0,1.9E1,4.1E1,2E0,3E0,1.1E1,2.2E1,1E0,5E0,1.6E1,3E0,1.7E1,2.4E1,2E0,1E0,1E0,1E1,1E0,4E0,1E0,2E0],"tree_param":{"num_deleted":"0","num_feature":"3","num_nodes":"29","size_leaf_vector":"1"}},{"base_weights":[-5.3855916E-4,-1.1494124E-2,1.7641918E-3,8.8161845E-3,-8.777939E-3,-2.1373942E-2,3.7101924E-2,-3.8038082E-2,2.4421047E-2,-9.6699335E-3,-1.1739755E-2,1.8298652E-2,1.3191609E-2,-1.5000344E-2,-1.1003045E-2,8.300315E-3,-4.153986E-3,-7.3547335E-3,1.1212818E-3,-1.1569746E-3,6.180232E-3,-3.504885E-3,-7.42197E-5,-2.1587962E-3,7.0490094E-4],"categories":[],"categories_nodes":[],"categories_segments":[],"categories_sizes":[],"default_left":[0,0,0,0,0,0,0,0,0,0,0,0,0,0,0,0,0,0,0,0,0,0,0,0,0],"id":1,"left_children":[1,-1,3,5,7,9,11,13,15,-1,17,19,-1,-1,21,-1,23,-1,-1,-1,-1,-1,-1,-1,-1],"loss_changes":[1.0602413E-2,0E0,9.01073E-3,6.544948E-2,5.2243594E-2,2.0834878E-3,1.014892E-3,6.304987E-3,2.9867701E-3,0E0,5.9948466E-3,1.3663182E-3,0E0,0E0,9.524042E-5,0E0,2.2302986E-4,0E0,0E0,0E0,0E0,0E0,0E0,0E0,0E0],"parents":[2147483647,0,0,2,2,3,3,4,4,5,5,6,6,7,7,8,8,10,10,11,11,14,14,16,16],"right_children":[2,-1,4,6,8,10,12,14,16,-1,18,20,-1,-1,22,-1,24,-1,-1,-1,-1,-1,-1,-1,-1],"split_conditions":[7.819898E1,-1.1494124E-2,1.2951854E2,5.1548467E0,5.736231E0,3.927875E0,5.819106E0,2.0570078E1,1.839952E2,-9.6699335E-3,2.2883831E1,2.444471E1,1.3191609E-2,-1.5000344E-2,2.5001175E1,8.300315E-3,1.9460599E2,-7.3547335E-3,1.1212818E-3,-1.1569746E-3,6.180232E-3,-3.504885E-3,-7.42197E-5,-2.1587962E-3,7.0490094E-4],"split_indices":[1,0,1,0,0,0,0,2,1,0,2,2,0,0,2,0,1,0,0,0,0,0,0,0,0],"split_type":[0,0,0,0,0,0,0,0,0,0,0,0,0,0,0,0,0,0,0,0,0,0,0,0,0],"sum_hessian":[1.13E2,2E0,1.11E2,6.7E1,4.4E1,3.3E1,3.4E1,2.3E1,2.1E1,1E1,2.3E1,1.4E1,2E1,1.3E1,1E1,1.9E1,2E0,1.1E1,1.2E1,1E0,1.3E1,9E0,1E0,1E0,1E0],"tree_param":{"num_deleted":"0","num_feature":"3","num_nodes":"25","size_leaf_vector":"1"}},{"base_weights":[-4.6846406E-3,-1.1816257E-2,-1.9549727E-3,-2.7943267E-2,1.9717826E-2,-6.11893E-3,-3.48449E-2,6.25578E-3,2.6061526E-2,-1.0165122E-2,3.5379366E-3,-1.05742775E-2,-8.966029E-4,1.0488446E-2,-1.6313631E-3,1.2958739E-3,1.0097967E-2,-3.9135036E-3,2.0836445E-3,3.889967E-3,5.67349E-4,-2.3406819E-3,2.273861E-3],"categories":[],"categories_nodes":[],"categories_segments":[],"categories_sizes":[],"default_left":[0,0,0,0,0,0,0,0,0,0,0,0,0,0,0,0,0,0,0,0,0,0,0],"id":2,"left_children":[1,-1,3,5,7,9,11,13,15,17,-1,-1,-1,19,-1,21,-1,-1,-1,-1,-1,-1,-1],"loss_changes":[1.1645363E-2,0E0,7.203331E-2,7.6701045E-3,5.162768E-3,2.048905E-3,2.488494E-5,1.7205394E-3,8.438114E-3,1.389276E-3,0E0,0E0,0E0,3.6740606E-4,0E0,1.2104029E-3,0E0,0E0,0E0,0E0,0E0,0E0,0E0],"parents":[2147483647,0,0,2,2,3,3,4,4,5,5,6,6,7,7,8,8,9,9,13,13,15,15],"right_children":[2,-1,4,6,8,10,12,14,16,18,-1,-1,-1,20,-1,22,-1,-1,-1,-1,-1,-1,-1],"split_conditions":[7.90368E1,-1.1816257E-2,5.162448E0,1.06704704E2,5.819106E0,2.76731E1,1.9682664E2,1.3711722E2,2.518717E1,4.9715176E0,3.5379366E-3,-1.05742775E-2,-8.966029E-4,5.7768626E0,-1.6313631E-3,2.383503E1,1.0097967E-2,-3.9135036E-3,2.0836445E-3,3.889967E-3,5.67349E-4,-2.3406819E-3,2.273861E-3],"split_indices":[1,0,0,1,0,2,1,1,2,0,0,0,0,0,0,2,0,0,0,0,0,0,0],"split_type":[0,0,0,0,0,0,0,0,0,0,0,0,0,0,0,0,0,0,0,0,0,0,0],"sum_hessian":[1.22E2,4E0,1.18E2,5.3E1,6.5E1,1.5E1,3.8E1,2.4E1,4.1E1,1.4E1,1E0,3.7E1,1E0,1.8E1,6E0,1.1E1,3E1,1.3E1,1E0,1.2E1,6E0,4E0,7E0],"tree_param":{"num_deleted":"0","num_feature":"3","num_nodes":"23","size_leaf_vector":"1"}},{"base_weights":[-1.4408318E-3,-3.272408E-2,1.557368E-2,-1.4805199E-2,-1.8696839E-2,-8.825349E-3,1.941524E-2,-7.0759337E-3,-6.6633485E-3,-1.0293463E-2,-2.128015E-3,2.1285575E-2,2.308426E-3,-9.719361E-3,1.3116654E-3,2.1096022E-4,-3.5234191E-3,2.8049093E-4,-9.049531E-4,1.4268151E-2,1.2826732E-2,-1.635936E-3,8.787513E-3,-3.92516E-3,-3.9871337E-4,9.069406E-4,-3.2766376E-4,1.4671088E-4,-4.8539045E-5,5.2513094E-3,-1.0999736E-3,2.8207686E-3,1.9335598E-4],"categories":[],"categories_nodes":[],"categories_segments":[],"categories_sizes":[],"default_left":[0,0,0,0,0,0,0,0,0,0,0,0,0,0,0,0,0,0,0,0,0,0,0,0,0,0,0,0,0,0,0,0,0],"id":3,"left_children":[1,3,5,-1,7,9,11,13,-1,15,17,19,21,23,25,-1,-1,27,-1,29,-1,-1,31,-1,-1,-1,-1,-1,-1,-1,-1,-1,-1],"loss_changes":[6.961409E-2,6.114848E-3,8.823808E-3,0E0,5.618837E-4,3.7963735E-5,2.1539815E-3,3.9632287E-4,0E0,2.1684449E-4,2.3490029E-5,7.04436E-3,8.9333724E-4,2.51806E-4,4.9422848E-5,0E0,0E0,1.0412818E-6,0E0,3.6872616E-3,0E0,0E0,1.4774385E-5,0E0,0E0,0E0,0E0,0E0,0E0,0E0,0E0,0E0,0E0],"parents":[2147483647,0,0,1,1,2,2,4,4,5,5,6,6,7,7,9,9,10,10,11,11,12,12,13,13,14,14,17,17,19,19,22,22],"right_children":[2,4,6,-1,8,10,12,14,-1,16,18,20,22,24,26,-1,-1,28,-1,30,-1,-1,32,-1,-1,-1,-1,-1,-1,-1,-1,-1,-1],"split_conditions":[2.29899E1,3.8931262E0,1.0258505E2,-1.4805199E-2,1.2188786E2,9.6177475E1,1.5675879E2,1.197452E2,-6.6633485E-3,2.2992466E1,1.00748436E2,7.62339E0,1.7239062E2,2.0109093E1,3.911339E0,2.1096022E-4,-3.5234191E-3,4.6557903E0,-9.049531E-4,1.4267781E2,1.2826732E-2,-1.635936E-3,1.839952E2,-3.92516E-3,-3.9871337E-4,9.069406E-4,-3.2766376E-4,1.4671088E-4,-4.8539045E-5,5.2513094E-3,-1.0999736E-3,2.8207686E-3,1.9335598E-4],"split_indices":[2,0,1,0,1,1,1,1,0,2,1,0,1,2,0,0,0,0,0,1,0,0,1,0,0,0,0,0,0,0,0,0,0],"split_type":[0,0,0,0,0,0,0,0,0,0,0,0,0,0,0,0,0,0,0,0,0,0,0,0,0,0,0,0,0,0,0,0,0],"sum_hessian":[1.21E2,4.1E1,8E1,1.3E1,2.8E1,1E1,7E1,1E1,1.8E1,6E0,4E0,6.2E1,8E0,7E0,3E0,1E0,5E0,2E0,2E0,5.3E1,9E0,4E0,4E0,3E0,4E0,1E0,2E0,1E0,1E0,4.5E1,8E0,3E0,1E0],"tree_param":{"num_deleted":"0","num_feature":"3","num_nodes":"33","size_leaf_vector":"1"}},{"base_weights":[1.1063702E-3,-1.6694799E-2,1.7496528E-2,-1.1715477E-2,-4.6737865E-3,1.1259101E-2,9.759121E-3,4.965927E-4,-2.3370953E-3,6.8610325E-3,5.3263524E-5,-3.8389273E-3,3.7587252E-3,3.7760145E-3,-5.082164E-3,-3.7788793E-3,1.3238647E-3,-1.580977E-3,4.565212E-3,-1.9830011E-3,1.7307849E-4],"categories":[],"categories_nodes":[],"categories_segments":[],"categories_sizes":[],"default_left":[0,0,0,0,0,0,0,0,0,0,0,0,0,0,0,0,0,0,0,0,0],"id":4,"left_children":[1,3,5,-1,7,9,-1,11,-1,-1,13,15,-1,17,19,-1,-1,-1,-1,-1,-1],"loss_changes":[3.7639238E-2,1.5749983E-2,4.451452E-3,0E0,7.6057087E-4,7.1500177E-3,0E0,1.3881674E-3,0E0,0E0,7.268429E-4,1.7232064E-3,0E0,2.677924E-3,1.5740644E-4,0E0,0E0,0E0,0E0,0E0,0E0],"parents":[2147483647,0,0,1,1,2,2,4,4,5,5,7,7,10,10,11,11,13,13,14,14],"right_children":[2,4,6,-1,8,10,-1,12,-1,-1,14,16,-1,18,20,-1,-1,-1,-1,-1,-1],"split_conditions":[5.162448E0,1.8538595E1,7.261991E0,-1.1715477E-2,1.09299934E2,1.2241131E2,9.759121E-3,1.06704704E2,-2.3370953E-3,6.8610325E-3,1.4251936E2,4.1815286E0,3.7587252E-3,6.171437E0,2.6928812E1,-3.7788793E-3,1.3238647E-3,-1.580977E-3,4.565212E-3,-1.9830011E-3,1.7307849E-4],"split_indices":[0,2,0,0,1,1,0,1,0,0,1,0,0,0,2,0,0,0,0,0,0],"split_type":[0,0,0,0,0,0,0,0,0,0,0,0,0,0,0,0,0,0,0,0,0],"sum_hessian":[1.19E2,5.7E1,6.2E1,1.6E1,4.1E1,5E1,1.2E1,1.7E1,2.4E1,2.2E1,2.8E1,1.5E1,2E0,1.7E1,1.1E1,6E0,9E0,1.1E1,6E0,8E0,3E0],"tree_param":{"num_deleted":"0","num_feature":"3","num_nodes":"21","size_leaf_vector":"1"}},{"base_weights":[-2.0761498E-4,-1.4433297E-2,1.4034544E-2,-8.0627715E-3,-1.1312111E-2,7.1240305E-3,1.0132054E-2,1.1291169E-3,-1.207942E-2,8.250667E-3,1.0388771E-3,-1.6717539E-4,5.30419E-4,-3.766824E-3,-1.3719108E-3,1.8753735E-3,1.0091618E-2,-2.818182E-3,4.747344E-3,5.833805E-5,-5.2037346E-4,2.2829615E-3,-2.0437494E-3,3.9380556E-3,1.7754863E-3,-1.5735729E-3,3.2005797E-4,1.8091098E-3,2.4539643E-4],"categories":[],"categories_nodes":[],"categories_segments":[],"categories_sizes":[],"default_left":[0,0,0,0,0,0,0,0,0,0,0,0,0,0,0,0,0,0,0,0,0,0,0,0,0,0,0,0,0],"id":5,"left_children":[1,3,5,-1,7,9,-1,11,13,15,17,-1,-1,-1,19,21,23,25,27,-1,-1,-1,-1,-1,-1,-1,-1,-1,-1],"loss_changes":[2.5527962E-2,9.2653185E-4,7.3905857E-3,0E0,6.3142413E-4,3.204979E-4,0E0,1.3546267E-5,1.996858E-4,4.2178272E-4,2.671473E-4,0E0,0E0,0E0,6.2311046E-6,1.0563405E-3,2.9569492E-5,1.2227203E-4,2.0709194E-5,0E0,0E0,0E0,0E0,0E0,0E0,0E0,0E0,0E0,0E0],"parents":[2147483647,0,0,1,1,2,2,4,4,5,5,7,7,8,8,9,9,10,10,14,14,15,15,16,16,17,17,18,18],"right_children":[2,4,6,-1,8,10,-1,12,14,16,18,-1,-1,-1,20,22,24,26,28,-1,-1,-1,-1,-1,-1,-1,-1,-1,-1],"split_conditions":[2.5024946E1,9.2694115E1,2.9954319E1,-8.0627715E-3,1.0236816E2,2.8753622E1,1.0132054E-2,3.4491076E0,1.9682664E2,2.603034E1,2.9561666E1,-1.6717539E-4,5.30419E-4,-3.766824E-3,2.0218398E2,5.8548875E0,2.6833841E1,1.0369149E2,2.9569769E1,5.833805E-5,-5.2037346E-4,2.2829615E-3,-2.0437494E-3,3.9380556E-3,1.7754863E-3,-1.5735729E-3,3.2005797E-4,1.8091098E-3,2.4539643E-4],"split_indices":[2,1,2,0,1,2,0,0,1,2,2,0,0,0,1,0,2,1,2,0,0,0,0,0,0,0,0,0,0],"split_type":[0,0,0,0,0,0,0,0,0,0,0,0,0,0,0,0,0,0,0,0,0,0,0,0,0,0,0,0,0],"sum_hessian":[1.16E2,5.8E1,5.8E1,4E0,5.4E1,4.8E1,1E1,3E0,5.1E1,3.9E1,9E0,1E0,2E0,4.8E1,3E0,1.1E1,2.8E1,5E0,4E0,1E0,2E0,7E0,4E0,1E1,1.8E1,2E0,3E0,1E0,3E0],"tree_param":{"num_deleted":"0","num_feature":"3","num_nodes":"29","size_leaf_vector":"1"}},{"base_weights":[-5.191497E-4,2.001317E-3,-1.1693598E-2,-6.531796E-3,3.5499427E-3,-4.800899E-3,-9.6237473E-4,1.639151E-3,6.2590064E-3,-5.6482125E-3,1.5568748E-2,-3.2947331E-3,9.992708E-3,-2.3307167E-3,-1.4348172E-4,2.0959973E-3,5.7610734E-3,-1.4981054E-3,1.8365086E-4,4.4707838E-3,3.458053E-5],"categories":[],"categories_nodes":[],"categories_segments":[],"categories_sizes":[],"default_left":[0,0,0,0,0,0,0,0,0,0,0,0,0,0,0,0,0,0,0,0,0],"id":6,"left_children":[1,3,5,-1,7,-1,-1,9,11,13,15,17,19,-1,-1,-1,-1,-1,-1,-1,-1],"loss_changes":[3.524957E-3,4.1786074E-3,5.843865E-4,0E0,4.7152478E-4,0E0,0E0,7.1393405E-3,1.5914491E-3,4.9675896E-4,7.7822246E-5,1.14849434E-4,1.446329E-3,0E0,0E0,0E0,0E0,0E0,0E0,0E0,0E0],"parents":[2147483647,0,0,1,1,2,2,4,4,7,7,8,8,9,9,10,10,11,11,12,12],"right_children":[2,4,6,-1,8,-1,-1,10,12,14,16,18,20,-1,-1,-1,-1,-1,-1,-1,-1],"split_conditions":[1.5763016E2,7.819898E1,1.9624477E1,-6.531796E-3,1.2647689E2,-4.800899E-3,-9.6237473E-4,2.7857777E1,5.350039E0,4.9715176E0,2.9954319E1,4.8961735E0,1.4251936E2,-2.3307167E-3,-1.4348172E-4,2.0959973E-3,5.7610734E-3,-1.4981054E-3,1.8365086E-4,4.4707838E-3,3.458053E-5],"split_indices":[1,1,2,0,1,0,0,2,0,0,2,0,1,0,0,0,0,0,0,0,0],"split_type":[0,0,0,0,0,0,0,0,0,0,0,0,0,0,0,0,0,0,0,0,0],"sum_hessian":[1.16E2,9.8E1,1.8E1,2E0,9.6E1,9E0,9E0,6.1E1,3.5E1,4.2E1,1.9E1,1E1,2.5E1,2.8E1,1.4E1,1E1,9E0,6E0,4E0,1.5E1,1E1],"tree_param":{"num_deleted":"0","num_feature":"3","num_nodes":"21","size_leaf_vector":"1"}},{"base_weights":[-2.1357639E-3,-6.3526346E-3,-7.059718E-4,1.0667891E-3,-6.9112377E-3,-1.4270802E-2,4.451073E-3,-3.035701E-3,1.0474076E-3,-4.2280557E-5,-4.518156E-3,8.6450006E-4,4.113032E-3,-2.881126E-3,2.2130639E-3,-2.8552857E-4,3.2899708E-3,-1.0227979E-3,-4.321933E-5],"categories":[],"categories_nodes":[],"categories_segments":[],"categories_sizes":[],"default_left":[0,0,0,0,0,0,0,0,0,0,0,0,0,0,0,0,0,0,0],"id":7,"left_children":[1,-1,3,5,7,9,11,-1,13,-1,-1,15,-1,17,-1,-1,-1,-1,-1],"loss_changes":[3.11032E-3,0E0,1.2909157E-3,5.144931E-3,7.1675994E-4,1.9024173E-4,2.5973932E-3,0E0,4.046551E-4,0E0,0E0,1.208112E-3,0E0,1.3447061E-5,0E0,0E0,0E0,0E0,0E0],"parents":[2147483647,0,0,2,2,3,3,4,4,5,5,6,6,8,8,11,11,13,13],"right_children":[2,-1,4,6,8,10,12,-1,14,-1,-1,16,-1,18,-1,-1,-1,-1,-1],"split_conditions":[7.819898E1,-6.3526346E-3,1.5763016E2,1.9007853E1,1.832152E2,1.0085418E2,2.8432222E1,-3.035701E-3,9.138753E0,-4.2280557E-5,-4.518156E-3,1.5421748E2,4.113032E-3,2.1981625E1,2.2130639E-3,-2.8552857E-4,3.2899708E-3,-1.0227979E-3,-4.321933E-5],"split_indices":[1,0,1,2,1,1,2,0,0,0,0,1,0,2,0,0,0,0,0],"split_type":[0,0,0,0,0,0,0,0,0,0,0,0,0,0,0,0,0,0,0],"sum_hessian":[1.12E2,3E0,1.09E2,8.8E1,2.1E1,1.3E1,7.5E1,1.4E1,7E0,1E0,1.2E1,5.8E1,1.7E1,6E0,1E0,5.3E1,5E0,4E0,2E0],"tree_param":{"num_deleted":"0","num_feature":"3","num_nodes":"19","size_leaf_vector":"1"}},{"base_weights":[7.518182E-4,-1.0299234E-2,3.8506296E-3,5.37752E-3,-5.038235E-3,7.34338E-3,2.4631426E-3,-5.2291653E-3,-8.007437E-5,-2.377757E-3,3.4587164E-3,-2.611186E-3,4.787325E-3,-1.8574216E-3,-8.272562E-4,1.841166E-4,-1.1336769E-3,-2.458637E-3,2.2578351E-3,-3.292981E-5,2.91501E-3,4.5081975E-5,-3.1301045E-4],"categories":[],"categories_nodes":[],"categories_segments":[],"categories_sizes":[],"default_left":[0,0,0,0,0,0,0,0,0,0,0,0,0,0,0,0,0,0,0,0,0,0,0],"id":8,"left_children":[1,-1,3,5,7,9,11,13,-1,15,-1,17,19,-1,21,-1,-1,-1,-1,-1,-1,-1,-1],"loss_changes":[1.3380554E-2,0E0,1.6555663E-3,4.7102827E-4,1.0330143E-5,2.4156787E-3,6.168053E-4,5.0633098E-5,0E0,9.961874E-5,0E0,1.3273698E-3,8.260791E-4,0E0,2.6852535E-6,0E0,0E0,0E0,0E0,0E0,0E0,0E0,0E0],"parents":[2147483647,0,0,2,2,3,3,4,4,5,5,6,6,7,7,9,9,11,11,12,12,14,14],"right_children":[2,-1,4,6,8,10,12,14,-1,16,-1,18,20,-1,22,-1,-1,-1,-1,-1,-1,-1,-1],"split_conditions":[3.2071822E0,-1.0299234E-2,1.5763016E2,1.2241131E2,1.9946199E2,4.44478E0,1.3067775E2,6.200783E0,-8.007437E-5,3.911339E0,3.4587164E-3,6.605372E0,2.603034E1,-1.8574216E-3,7.261991E0,1.841166E-4,-1.1336769E-3,-2.458637E-3,2.2578351E-3,-3.292981E-5,2.91501E-3,4.5081975E-5,-3.1301045E-4],"split_indices":[0,0,1,1,1,0,1,0,0,0,0,0,2,0,0,0,0,0,0,0,0,0,0],"split_type":[0,0,0,0,0,0,0,0,0,0,0,0,0,0,0,0,0,0,0,0,0,0,0],"sum_hessian":[1.12E2,5E0,1.07E2,9.3E1,1.4E1,5.1E1,4.2E1,1.3E1,1E0,1.6E1,3.5E1,1.3E1,2.9E1,9E0,4E0,6E0,1E1,9E0,4E0,1.7E1,1.2E1,1E0,3E0],"tree_param":{"num_deleted":"0","num_feature":"3","num_nodes":"23","size_leaf_vector":"1"}},{"base_weights":[-8.769394E-4,-4.2634504E-3,6.5950386E-4,-1.6499866E-2,3.4850498E-3,-4.9372764E-5,-1.7534027E-2,1.1139552E-2,1.0045522E-3,-5.5321385E-3,-2.4219752E-4,1.21805165E-2,-5.880833E-4,-5.6781905E-4,2.9667558E-3,-8.8045424E-5,4.0503866E-3,-7.748809E-4,3.9047592E-3],"categories":[],"categories_nodes":[],"categories_segments":[],"categories_sizes":[],"default_left":[0,0,0,0,0,0,0,0,0,0,0,0,0,0,0,0,0,0,0],"id":9,"left_children":[1,-1,3,5,7,-1,9,11,13,-1,-1,15,-1,17,-1,-1,-1,-1,-1],"loss_changes":[2.3824715E-3,0E0,5.475365E-3,2.5586504E-4,1.7667979E-3,0E0,1.5298743E-4,4.3302448E-4,1.1177318E-3,0E0,0E0,3.822688E-4,0E0,2.111558E-3,0E0,0E0,0E0,0E0,0E0],"parents":[2147483647,0,0,2,2,3,3,4,4,6,6,7,7,8,8,11,11,13,13],"right_children":[2,-1,4,6,8,-1,10,12,14,-1,-1,16,-1,18,-1,-1,-1,-1,-1],"split_conditions":[9.6177475E1,-4.2634504E-3,1.8183613E1,1.0085418E2,1.1220454E2,-4.9372764E-5,4.5071597E0,3.1763248E1,3.0898453E1,-5.5321385E-3,-2.4219752E-4,1.01793465E2,-5.880833E-4,7.8830934E0,2.9667558E-3,-8.8045424E-5,4.0503866E-3,-7.748809E-4,3.9047592E-3],"split_indices":[1,0,2,1,1,0,0,2,2,0,0,1,0,0,0,0,0,0,0],"split_type":[0,0,0,0,0,0,0,0,0,0,0,0,0,0,0,0,0,0,0],"sum_hessian":[1.09E2,7E0,1.02E2,1.1E1,9.1E1,1E0,1E1,1.8E1,7.3E1,9E0,1E0,1.7E1,1E0,6.6E1,7E0,2E0,1.5E1,6.1E1,5E0],"tree_param":{"num_deleted":"0","num_feature":"3","num_nodes":"19","size_leaf_vector":"1"}},{"base_weights":[-8.193423E-4,-2.041896E-2,2.7490277E-3,-7.5653302E-3,-2.0137061E-3,7.2587864E-4,1.3722358E-2,2.3620233E-3,-1.7740853E-3,4.3250523E-3,1.3053269E-4,3.392735E-3,-1.0324342E-3,1.4727487E-3,1.2029887E-4],"categories":[],"categories_nodes":[],"categories_segments":[],"categories_sizes":[],"default_left":[0,0,0,0,0,0,0,0,0,0,0,0,0,0,0],"id":10,"left_children":[1,3,5,-1,-1,7,9,11,-1,-1,-1,13,-1,-1,-1],"loss_changes":[9.092936E-3,4.6915468E-4,2.4144722E-3,0E0,0E0,1.1452951E-3,1.2550713E-4,5.548611E-4,0E0,0E0,0E0,3.2134017E-4,0E0,0E0,0E0],"parents":[2147483647,0,0,1,1,2,2,5,5,6,6,7,7,11,11],"right_children":[2,4,6,-1,-1,8,10,12,-1,-1,-1,14,-1,-1,-1],"split_conditions":[1.8284443E1,1.6836264E1,2.9954319E1,-7.5653302E-3,-2.0137061E-3,2.77229E1,1.3266174E2,1.676907E2,-1.7740853E-3,4.3250523E-3,1.3053269E-4,2.5322235E1,-1.0324342E-3,1.4727487E-3,1.2029887E-4],"split_indices":[2,2,2,0,0,2,1,1,0,0,0,2,0,0,0],"split_type":[0,0,0,0,0,0,0,0,0,0,0,0,0,0,0],"sum_hessian":[1.21E2,1.5E1,1.06E2,8E0,7E0,9.4E1,1.2E1,7.8E1,1.6E1,1.1E1,1E0,6.8E1,1E1,4.3E1,2.5E1],"tree_param":{"num_deleted":"0","num_feature":"3","num_nodes":"15","size_leaf_vector":"1"}},{"base_weights":[1.2328617E-5,-3.4510107E-3,3.0057936E-3,8.331305E-3,1.2423212E-3,1.0991757E-2,-1.7943137E-3,-2.5615592E-3,2.5940246E-3,4.768181E-3,1.3466471E-2,7.3125344E-3,1.0149393E-3,-5.2082504E-4,3.7537517E-3,4.209688E-3,3.338307E-4,3.1667814E-4,3.5370872E-3,-6.580452E-4,9.989785E-4],"categories":[],"categories_nodes":[],"categories_segments":[],"categories_sizes":[],"default_left":[0,0,0,0,0,0,0,0,0,0,0,0,0,0,0,0,0,0,0,0,0],"id":11,"left_children":[1,-1,3,5,7,9,-1,-1,11,13,15,17,19,-1,-1,-1,-1,-1,-1,-1,-1],"loss_changes":[4.343976E-3,0E0,8.8738865E-4,1.2425664E-3,1.1816316E-3,1.7781509E-5,0E0,0E0,5.217109E-4,8.1380963E-4,1.2796372E-5,4.4207816E-4,4.9702346E-4,0E0,0E0,0E0,0E0,0E0,0E0,0E0,0E0],"parents":[2147483647,0,0,2,2,3,3,4,4,5,5,8,8,9,9,10,10,11,11,12,12],"right_children":[2,-1,4,6,8,10,-1,-1,12,14,16,18,20,-1,-1,-1,-1,-1,-1,-1,-1],"split_conditions":[4.1815286E0,-3.4510107E-3,1.1220454E2,5.8208995E0,1.138952E2,1.0370763E2,-1.7943137E-3,-2.5615592E-3,1.2232064E2,2.8861076E1,1.1201498E2,1.197452E2,2.4581657E1,-5.2082504E-4,3.7537517E-3,4.209688E-3,3.338307E-4,3.1667814E-4,3.5370872E-3,-6.580452E-4,9.989785E-4],"split_indices":[0,0,1,0,1,1,0,0,1,2,1,1,2,0,0,0,0,0,0,0,0],"split_type":[0,0,0,0,0,0,0,0,0,0,0,0,0,0,0,0,0,0,0,0,0],"sum_hessian":[1.16E2,2.1E1,9.5E1,1.9E1,7.6E1,1.7E1,2E0,6E0,7E1,9E0,8E0,1.3E1,5.7E1,7E0,2E0,7E0,1E0,8E0,5E0,2.4E1,3.3E1],"tree_param":{"num_deleted":"0","num_feature":"3","num_nodes":"21","size_leaf_vector":"1"}},{"base_weights":[-1.0653173E-3,-5.7866084E-3,1.1233707E-3,-2.7385866E-4,8.549278E-3,-2.965546E-3,3.3632817E-3,2.6653071E-3,4.081889E-3,-6.6289017E-3,-1.2424545E-3,-1.1679732E-4,3.247915E-3,3.4320015E-3,-3.0846482E-3,2.2633151E-4,-2.174596E-3,1.5183892E-3,-8.686846E-4,6.6430843E-4,-1.4212206E-3,-2.1675685E-3,2.857138E-4],"categories":[],"categories_nodes":[],"categories_segments":[],"categories_sizes":[],"default_left":[0,0,0,0,0,0,0,0,0,0,0,0,0,0,0,0,0,0,0,0,0,0,0],"id":12,"left_children":[1,-1,3,5,7,9,11,13,-1,15,17,19,-1,-1,21,-1,-1,-1,-1,-1,-1,-1,-1],"loss_changes":[5.213659E-3,0E0,1.2464141E-3,1.0778246E-3,3.8402702E-4,3.5649422E-4,1.2270152E-3,9.3325373E-4,0E0,1.1428422E-4,5.839125E-4,4.50992E-4,0E0,0E0,2.5170905E-4,0E0,0E0,0E0,0E0,0E0,0E0,0E0,0E0],"parents":[2147483647,0,0,2,2,3,3,4,4,5,5,6,6,7,7,9,9,10,10,11,11,14,14],"right_children":[2,-1,4,6,8,10,12,14,-1,16,18,20,-1,-1,22,-1,-1,-1,-1,-1,-1,-1,-1],"split_conditions":[1.6836264E1,-5.7866084E-3,3.0102455E1,1.3067775E2,7.3388186E0,1.04256165E2,2.603034E1,3.0288013E1,4.081889E-3,1.765667E1,1.09299934E2,5.9155154E0,3.247915E-3,3.4320015E-3,6.0457416E0,2.2633151E-4,-2.174596E-3,1.5183892E-3,-8.686846E-4,6.6430843E-4,-1.4212206E-3,-2.1675685E-3,2.857138E-4],"split_indices":[2,0,2,1,0,1,2,2,0,2,1,0,0,0,0,0,0,0,0,0,0,0,0],"split_type":[0,0,0,0,0,0,0,0,0,0,0,0,0,0,0,0,0,0,0,0,0,0,0],"sum_hessian":[1.23E2,9E0,1.14E2,1E2,1.4E1,5.8E1,4.2E1,1E1,4E0,1.4E1,4.4E1,3.2E1,1E1,2E0,8E0,1E0,1.3E1,7E0,3.7E1,2.3E1,9E0,2E0,6E0],"tree_param":{"num_deleted":"0","num_feature":"3","num_nodes":"23","size_leaf_vector":"1"}},{"base_weights":[-5.507027E-4,-1.5139882E-2,1.0370087E-3,-4.737163E-3,-3.991306E-4,-4.8570722E-4,1.2819886E-2,5.029825E-3,-1.5500044E-3,-2.5865436E-4,4.2957906E-3,-4.6637058E-4,2.196936E-3,3.7665074E-4,-4.993315E-3,-5.1214773E-4,3.8543856E-4,-7.4979704E-4,9.103429E-4,-2.7944364E-3,-3.2683808E-4],"categories":[],"categories_nodes":[],"categories_segments":[],"categories_sizes":[],"default_left":[0,0,0,0,0,0,0,0,0,0,0,0,0,0,0,0,0,0,0,0,0],"id":13,"left_children":[1,3,5,-1,-1,7,9,11,13,-1,-1,15,-1,17,19,-1,-1,-1,-1,-1,-1],"loss_changes":[2.8349461E-3,2.7818605E-6,2.0406346E-3,0E0,0E0,6.494784E-4,3.2842532E-4,2.4395552E-4,6.1310426E-4,0E0,0E0,3.269501E-5,0E0,5.194824E-4,5.059828E-4,0E0,0E0,0E0,0E0,0E0,0E0],"parents":[2147483647,0,0,1,1,2,2,5,5,6,6,7,7,8,8,11,11,13,13,14,14],"right_children":[2,4,6,-1,-1,8,10,12,14,-1,-1,16,-1,18,20,-1,-1,-1,-1,-1,-1],"split_conditions":[3.2542276E0,3.2071822E0,8.470891E0,-4.737163E-3,-3.991306E-4,1.0316925E2,2.557135E1,4.1815286E0,2.686916E1,-2.5865436E-4,4.2957906E-3,9.6177475E1,2.196936E-3,5.074524E0,2.8432222E1,-5.1214773E-4,3.8543856E-4,-7.4979704E-4,9.103429E-4,-2.7944364E-3,-3.2683808E-4],"split_indices":[0,0,0,0,0,1,2,0,2,0,0,1,0,0,2,0,0,0,0,0,0],"split_type":[0,0,0,0,0,0,0,0,0,0,0,0,0,0,0,0,0,0,0,0,0],"sum_hessian":[1.14E2,7E0,1.07E2,6E0,1E0,9.9E1,8E0,1.3E1,8.6E1,1E0,7E0,5E0,8E0,5.8E1,2.8E1,3E0,2E0,2.8E1,3E1,1E1,1.8E1],"tree_param":{"num_deleted":"0","num_feature":"3","num_nodes":"21","size_leaf_vector":"1"}},{"base_weights":[-1.1415798E-3,-2.0813108E-3,-6.7859585E-4,-1.0892824E-2,2.9408894E-4,2.7179197E-4,-3.7577073E-3,6.1015943E-3,-6.4234127E-4,4.282031E-4,2.304768E-3,-1.6001909E-3,9.448895E-3,2.810078E-4,-1.8198566E-4,1.9117055E-5,-1.1402322E-3,-2.4572166E-4,3.3134462E-3],"categories":[],"categories_nodes":[],"categories_segments":[],"categories_sizes":[],"default_left":[0,0,0,0,0,0,0,0,0,0,0,0,0,0,0,0,0,0,0],"id":14,"left_children":[1,-1,3,5,7,-1,-1,9,11,13,-1,15,17,-1,-1,-1,-1,-1,-1],"loss_changes":[3.226336E-4,0E0,1.2579204E-3,2.6866398E-4,6.6675706E-4,0E0,0E0,1.3603189E-4,1.10985E-3,7.576841E-6,0E0,3.7469235E-4,2.0910171E-4,0E0,0E0,0E0,0E0,0E0,0E0],"parents":[2147483647,0,0,2,2,3,3,4,4,7,7,8,8,9,9,11,11,12,12],"right_children":[2,-1,4,6,8,-1,-1,10,12,14,-1,16,18,-1,-1,-1,-1,-1,-1],"split_conditions":[7.90368E1,-2.0813108E-3,3.2542276E0,9.2694115E1,1.0316925E2,2.7179197E-4,-3.7577073E-3,4.1815286E0,8.470891E0,4.1643214E0,2.304768E-3,2.5322235E1,2.557135E1,2.810078E-4,-1.8198566E-4,1.9117055E-5,-1.1402322E-3,-2.4572166E-4,3.3134462E-3],"split_indices":[1,0,0,1,1,0,0,0,0,0,0,2,2,0,0,0,0,0,0],"split_type":[0,0,0,0,0,0,0,0,0,0,0,0,0,0,0,0,0,0,0],"sum_hessian":[1.24E2,4E0,1.2E2,6E0,1.14E2,1E0,5E0,1.2E1,1.02E2,4E0,8E0,9.7E1,5E0,3E0,1E0,5.8E1,3.9E1,1E0,4E0],"tree_param":{"num_deleted":"0","num_feature":"3","num_nodes":"19","size_leaf_vector":"1"}},{"base_weights":[8.216986E-4,-2.444878E-4,4.5164637E-3,-9.339099E-3,6.9874106E-4,-3.5718388E-3,2.996615E-4,2.7940418E-3,-3.2320141E-3,5.0323224E-3,-4.2675275E-4,-2.622369E-3,-1.1573804E-3,-3.6286183E-5,4.819889E-3,-9.988263E-4,1.6592988E-3,-1.616981E-3,1.0384019E-4],"categories":[],"categories_nodes":[],"categories_segments":[],"categories_sizes":[],"default_left":[0,0,0,0,0,0,0,0,0,0,0,0,0,0,0,0,0,0,0],"id":15,"left_children":[1,3,-1,5,7,-1,-1,9,11,13,15,-1,17,-1,-1,-1,-1,-1,-1],"loss_changes":[1.960832E-3,1.0963372E-3,0E0,3.77918E-4,1.0087773E-3,0E0,0E0,5.802522E-4,4.4088834E-4,2.682189E-3,7.319298E-4,0E0,2.4478542E-4,0E0,0E0,0E0,0E0,0E0,0E0],"parents":[2147483647,0,0,1,1,3,3,4,4,7,7,8,8,9,9,10,10,12,12],"right_children":[2,4,-1,6,8,-1,-1,10,12,14,16,-1,18,-1,-1,-1,-1,-1,-1],"split_conditions":[8.999836E0,2.8900614E0,4.5164637E-3,1.6836264E1,5.97702E0,-3.5718388E-3,2.996615E-4,1.2108575E2,1.138952E2,2.76731E1,2.4581657E1,-2.622369E-3,6.200783E0,-3.6286183E-5,4.819889E-3,-9.988263E-4,1.6592988E-3,-1.616981E-3,1.0384019E-4],"split_indices":[0,0,0,2,0,0,0,1,1,2,2,0,0,0,0,0,0,0,0],"split_type":[0,0,0,0,0,0,0,0,0,0,0,0,0,0,0,0,0,0,0],"sum_hessian":[1.23E2,1.19E2,4E0,7E0,1.12E2,5E0,2E0,7.4E1,3.8E1,4.2E1,3.2E1,6E0,3.2E1,3.2E1,1E1,2.3E1,9E0,5E0,2.7E1],"tree_param":{"num_deleted":"0","num_feature":"3","num_nodes":"19","size_leaf_vector":"1"}},{"base_weights":[6.6539185E-4,-7.2964374E-3,2.1362375E-3,-8.55607E-3,-1.7587707E-3,-1.248188E-3,2.899426E-3,-8.935871E-3,-1.6194285E-4,1.7379486E-4,-9.523816E-4,-3.7916922E-3,5.89069E-3,1.8459187E-3,3.68424E-3,-3.232088E-3,5.973322E-4,-1.6849775E-4,-1.8410844E-3,2.3388353E-3,-3.7236512E-4,3.4723335E-3,-1.4643233E-4,2.5230573E-4,-4.3239444E-5,-4.018234E-4,5.375594E-4,2.6015984E-4,2.2285818E-3,-2.0796563E-3,8.007709E-4],"categories":[],"categories_nodes":[],"categories_segments":[],"categories_sizes":[],"default_left":[0,0,0,0,0,0,0,0,0,0,0,0,0,0,0,0,0,0,0,0,0,0,0,0,0,0,0,0,0,0,0],"id":16,"left_children":[1,3,5,7,9,11,13,15,-1,-1,-1,17,19,21,-1,-1,23,25,-1,-1,-1,27,29,-1,-1,-1,-1,-1,-1,-1,-1],"loss_changes":[1.4949196E-3,6.426766E-5,2.9188834E-4,2.1550455E-5,4.2298936E-5,5.29307E-4,7.563876E-4,2.7745287E-4,0E0,0E0,0E0,1.6477602E-4,1.57098E-4,2.7797537E-4,0E0,0E0,1.8708815E-6,4.1840605E-5,0E0,0E0,0E0,4.5220077E-4,9.1409497E-4,0E0,0E0,0E0,0E0,0E0,0E0,0E0,0E0],"parents":[2147483647,0,0,1,1,2,2,3,3,4,4,5,5,6,6,7,7,11,11,12,12,13,13,16,16,17,17,21,21,22,22],"right_children":[2,4,6,8,10,12,14,16,-1,-1,-1,18,20,22,-1,-1,24,26,-1,-1,-1,28,30,-1,-1,-1,-1,-1,-1,-1,-1],"split_conditions":[1.8984201E1,1.8284443E1,1.0474867E2,4.9715176E0,1.8869091E1,2.9561666E1,9.138753E0,1.3758002E2,-1.6194285E-4,1.7379486E-4,-9.523816E-4,4.4121733E0,3.0288013E1,2.5322235E1,3.68424E-3,-3.232088E-3,1.5114331E1,4.3191385E0,-1.8410844E-3,2.3388353E-3,-3.7236512E-4,5.771462E0,2.6404312E1,2.5230573E-4,-4.3239444E-5,-4.018234E-4,5.375594E-4,2.6015984E-4,2.2285818E-3,-2.0796563E-3,8.007709E-4],"split_indices":[2,2,1,0,2,2,0,1,0,0,0,0,2,2,0,0,2,0,0,0,0,0,2,0,0,0,0,0,0,0,0],"split_type":[0,0,0,0,0,0,0,0,0,0,0,0,0,0,0,0,0,0,0,0,0,0,0,0,0,0,0,0,0,0,0],"sum_hessian":[1.16E2,1.5E1,1.01E2,1E1,5E0,1.8E1,8.3E1,9E0,1E0,3E0,2E0,1.5E1,3E0,8E1,3E0,7E0,2E0,8E0,7E0,2E0,1E0,4.2E1,3.8E1,1E0,1E0,6E0,2E0,2.9E1,1.3E1,9E0,2.9E1],"tree_param":{"num_deleted":"0","num_feature":"3","num_nodes":"31","size_leaf_vector":"1"}},{"base_weights":[-5.0179986E-4,-2.9672096E-3,6.005424E-4,2.9445088E-3,-1.3568874E-3,-1.2760478E-3,5.6957626E-3,8.9502893E-4,-3.0747E-3,1.5329652E-3,-4.957881E-3,2.765612E-3,8.684677E-3,-5.547484E-4,6.4690537E-3,-5.9288647E-3,-1.7459069E-4,-3.4964894E-4,6.703472E-4,3.6734922E-4,-2.309685E-3,2.703663E-3,-3.7495897E-4,-2.7870388E-5,2.8186818E-3,-1.1606086E-3,3.2391492E-4,1.04939936E-4,2.159229E-3,-2.7223295E-3,-2.9606983E-4,8.132588E-4,-5.668278E-4],"categories":[],"categories_nodes":[],"categories_segments":[],"categories_sizes":[],"default_left":[0,0,0,0,0,0,0,0,0,0,0,0,0,0,0,0,0,0,0,0,0,0,0,0,0,0,0,0,0,0,0,0,0],"id":17,"left_children":[1,-1,3,5,7,9,11,13,15,17,19,21,23,25,27,29,31,-1,-1,-1,-1,-1,-1,-1,-1,-1,-1,-1,-1,-1,-1,-1,-1],"loss_changes":[1.2820221E-3,0E0,5.384378E-4,6.517668E-4,2.652038E-4,2.9655924E-4,1.6892084E-4,2.765385E-4,3.0936516E-4,4.7096157E-5,2.5049262E-4,6.5831345E-4,9.172771E-5,1.8338133E-4,1.861155E-5,2.5058253E-4,1.4436372E-4,0E0,0E0,0E0,0E0,0E0,0E0,0E0,0E0,0E0,0E0,0E0,0E0,0E0,0E0,0E0,0E0],"parents":[2147483647,0,0,2,2,3,3,4,4,5,5,6,6,7,7,8,8,9,9,10,10,11,11,12,12,13,13,14,14,15,15,16,16],"right_children":[2,-1,4,6,8,10,12,14,16,18,20,22,24,26,28,30,32,-1,-1,-1,-1,-1,-1,-1,-1,-1,-1,-1,-1,-1,-1,-1,-1],"split_conditions":[1.6836264E1,-2.9672096E-3,1.2232064E2,1.07895195E2,5.736231E0,1.0316925E2,1.1850873E2,5.559705E0,6.419466E0,7.90368E1,5.1547065E0,1.1220454E2,3.2542276E0,1.3067775E2,2.0570078E1,1.358517E2,1.2768893E2,-3.4964894E-4,6.703472E-4,3.6734922E-4,-2.309685E-3,2.703663E-3,-3.7495897E-4,-2.7870388E-5,2.8186818E-3,-1.1606086E-3,3.2391492E-4,1.04939936E-4,2.159229E-3,-2.7223295E-3,-2.9606983E-4,8.132588E-4,-5.668278E-4],"split_indices":[2,0,1,1,0,1,1,0,0,1,0,1,0,1,2,1,1,0,0,0,0,0,0,0,0,0,0,0,0,0,0,0,0],"split_type":[0,0,0,0,0,0,0,0,0,0,0,0,0,0,0,0,0,0,0,0,0,0,0,0,0,0,0,0,0,0,0,0,0],"sum_hessian":[1.16E2,8E0,1.08E2,4.8E1,6E1,2E1,2.8E1,2.7E1,3.3E1,1.3E1,7E0,1.9E1,9E0,2.5E1,2E0,1.4E1,1.9E1,2E0,1.1E1,3E0,4E0,5E0,1.4E1,1E0,8E0,6E0,1.9E1,1E0,1E0,6E0,8E0,6E0,1.3E1],"tree_param":{"num_deleted":"0","num_feature":"3","num_nodes":"33","size_leaf_vector":"1"}},{"base_weights":[1.307993E-4,1.7454979E-3,-1.2937858E-3,-5.5314237E-3,3.2789353E-3,1.2087533E-3,-2.9852272E-3,-2.2014962E-3,1.8433668E-4,1.6713304E-3,7.5048464E-3,-8.738425E-4,5.217397E-3,-5.3492077E-3,5.7445564E-3,5.075506E-4,-1.0390804E-4,-2.6754078E-3,5.0986544E-3,3.0071386E-3,2.26159E-3,4.0942949E-4,-1.2051294E-3,9.969324E-5,5.510445E-3,1.6636625E-3,-6.663834E-3,1.5186429E-3,2.3034965E-3,-2.647713E-5,2.0411983E-4,-1.5537356E-4,-2.0000115E-3,1.7361159E-3,-3.300452E-4,-1.5520514E-3,1.6775556E-3,-2.9305863E-4,3.197583E-4,2.4028393E-3,-4.915832E-4,6.872546E-4,-7.2435614E-5,-2.2422401E-3,-1.0522207E-4,-3.2693296E-4,7.2416966E-4],"categories":[],"categories_nodes":[],"categories_segments":[],"categories_sizes":[],"default_left":[0,0,0,0,0,0,0,0,0,0,0,0,0,0,0,0,0,0,0,0,0,0,0,0,0,0,0,0,0,0,0,0,0,0,0,0,0,0,0,0,0,0,0,0,0,0,0],"id":18,"left_children":[1,3,5,7,9,11,13,-1,15,17,19,21,23,25,27,29,-1,31,33,-1,35,37,-1,-1,39,41,43,45,-1,-1,-1,-1,-1,-1,-1,-1,-1,-1,-1,-1,-1,-1,-1,-1,-1,-1,-1],"loss_changes":[3.1492786E-4,8.04843E-4,3.2704356E-4,1.4102485E-4,3.17726E-4,2.9829258E-4,1.082311E-3,0E0,2.2512052E-6,7.6839584E-4,7.155631E-5,1.1309853E-4,8.022907E-6,4.0576537E-4,3.9759907E-5,1.0211432E-6,0E0,1.8940512E-4,1.5131605E-4,0E0,4.1701624E-4,2.613612E-5,0E0,0E0,2.6214376E-4,1.4714267E-5,1.5570398E-4,3.6505076E-5,0E0,0E0,0E0,0E0,0E0,0E0,0E0,0E0,0E0,0E0,0E0,0E0,0E0,0E0,0E0,0E0,0E0,0E0,0E0],"parents":[2147483647,0,0,1,1,2,2,3,3,4,4,5,5,6,6,8,8,9,9,10,10,11,11,12,12,13,13,14,14,15,15,17,17,18,18,20,20,21,21,24,24,25,25,26,26,27,27],"right_children":[2,4,6,8,10,12,14,-1,16,18,20,22,24,26,28,30,-1,32,34,-1,36,38,-1,-1,40,42,44,46,-1,-1,-1,-1,-1,-1,-1,-1,-1,-1,-1,-1,-1,-1,-1,-1,-1,-1,-1],"split_conditions":[1.2232064E2,1.8284443E1,2.3865541E1,1.0781166E2,2.9954319E1,5.350039E0,8.470891E0,-2.2014962E-3,3.670529E0,1.07895195E2,5.8208995E0,5.0843177E0,2.0570078E1,5.3690057E0,9.138753E0,3.2542276E0,-1.0390804E-4,2.7762602E1,1.2108575E2,3.0071386E-3,3.0898453E1,1.3370734E2,-1.2051294E-3,9.969324E-5,6.787025E0,2.4799658E1,1.566497E2,2.557135E1,2.3034965E-3,-2.647713E-5,2.0411983E-4,-1.5537356E-4,-2.0000115E-3,1.7361159E-3,-3.300452E-4,-1.5520514E-3,1.6775556E-3,-2.9305863E-4,3.197583E-4,2.4028393E-3,-4.915832E-4,6.872546E-4,-7.2435614E-5,-2.2422401E-3,-1.0522207E-4,-3.2693296E-4,7.2416966E-4],"split_indices":[1,2,2,1,2,0,0,0,0,1,0,0,2,0,0,0,0,2,1,0,2,1,0,0,0,2,1,2,0,0,0,0,0,0,0,0,0,0,0,0,0,0,0,0,0,0,0],"split_type":[0,0,0,0,0,0,0,0,0,0,0,0,0,0,0,0,0,0,0,0,0,0,0,0,0,0,0,0,0,0,0,0,0,0,0,0,0,0,0,0,0,0,0,0,0,0,0],"sum_hessian":[1.27E2,5.9E1,6.8E1,8E0,5.1E1,2.8E1,4E1,5E0,3E0,4.2E1,9E0,2.1E1,7E0,3.3E1,7E0,2E0,1E0,1.9E1,2.3E1,3E0,6E0,1.8E1,3E0,1E0,6E0,5E0,2.8E1,5E0,2E0,1E0,1E0,1.6E1,3E0,2.1E1,2E0,1E0,5E0,5E0,1.3E1,4E0,2E0,3E0,2E0,2.4E1,4E0,1E0,4E0],"tree_param":{"num_deleted":"0","num_feature":"3","num_nodes":"47","size_leaf_vector":"1"}},{"base_weights":[1.7330199E-4,-3.0968478E-3,2.577811E-3,-2.1080107E-3,-1.5486538E-3,2.1572486E-3,1.3834131E-3,-3.2602465E-3,3.3574222E-4,-2.3762106E-3,2.7311319E-3,-7.318376E-4,-6.7867506E-3,1.5707528E-3,-1.1956064E-3,2.4028057E-3,1.6962908E-3,8.926459E-4,-1.6668517E-3,-2.3726732E-3,1.0952652E-4,6.555814E-4,-3.6373734E-5,-4.5682566E-4,6.576585E-5,-2.102034E-5,2.3723224E-3],"categories":[],"categories_nodes":[],"categories_segments":[],"categories_sizes":[],"default_left":[0,0,0,0,0,0,0,0,0,0,0,0,0,0,0,0,0,0,0,0,0,0,0,0,0,0,0],"id":19,"left_children":[1,3,5,-1,7,-1,9,11,13,-1,15,17,19,21,23,-1,25,-1,-1,-1,-1,-1,-1,-1,-1,-1,-1],"loss_changes":[9.4417244E-4,2.5588338E-4,3.304353E-4,0E0,1.4416169E-4,0E0,8.730617E-4,1.8024421E-4,5.6670804E-5,0E0,2.4340986E-4,4.224836E-4,8.666678E-5,1.7961007E-5,8.149047E-6,0E0,5.9523946E-4,0E0,0E0,0E0,0E0,0E0,0E0,0E0,0E0,0E0,0E0],"parents":[2147483647,0,0,1,1,2,2,4,4,6,6,7,7,8,8,10,10,11,11,12,12,13,13,14,14,16,16],"right_children":[2,4,6,-1,8,-1,10,12,14,-1,16,18,20,22,24,-1,26,-1,-1,-1,-1,-1,-1,-1,-1,-1,-1],"split_conditions":[5.074524E0,3.2071822E0,1.1220454E2,-2.1080107E-3,1.182716E2,2.1572486E-3,1.138952E2,4.7674313E0,1.3712114E2,-2.3762106E-3,1.1514959E2,1.09299934E2,1.0978913E2,1.9651493E1,1.9624477E1,2.4028057E-3,7.8830934E0,8.926459E-4,-1.6668517E-3,-2.3726732E-3,1.0952652E-4,6.555814E-4,-3.6373734E-5,-4.5682566E-4,6.576585E-5,-2.102034E-5,2.3723224E-3],"split_indices":[0,0,1,0,1,0,1,0,1,0,1,1,1,2,2,0,0,0,0,0,0,0,0,0,0,0,0],"split_type":[0,0,0,0,0,0,0,0,0,0,0,0,0,0,0,0,0,0,0,0,0,0,0,0,0,0,0],"sum_hessian":[1.1E2,4.6E1,6.4E1,8E0,3.8E1,8E0,5.6E1,1.8E1,2E1,4E0,5.2E1,1.4E1,4E0,1.1E1,9E0,3E0,4.9E1,9E0,5E0,3E0,1E0,7E0,4E0,7E0,2E0,4.2E1,7E0],"tree_param":{"num_deleted":"0","num_feature":"3","num_nodes":"27","size_leaf_vector":"1"}},{"base_weights":[6.793239E-4,-1.8750486E-3,3.560242E-3,-2.5204278E-3,1.692442E-3,5.1501268E-3,-3.5640597E-4,-2.1864942E-3,-1.7275338E-3,-9.554527E-4,5.945106E-3,-1.3426995E-3,1.8022251E-3,2.0065436E-3,-2.6048208E-3,3.9874236E-3,2.588409E-3,4.036523E-3,-3.513474E-3,-7.81579E-5,8.0455915E-4,-5.7979114E-4,-1.5785935E-3,1.6786034E-3,-1.0226668E-3,-2.4322998E-4,1.6758494E-3,-1.2760111E-3,8.329004E-5],"categories":[],"categories_nodes":[],"categories_segments":[],"categories_sizes":[],"default_left":[0,0,0,0,0,0,0,0,0,0,0,0,0,0,0,0,0,0,0,0,0,0,0,0,0,0,0,0,0],"id":20,"left_children":[1,3,5,7,-1,9,11,-1,13,-1,15,-1,17,19,21,23,-1,25,27,-1,-1,-1,-1,-1,-1,-1,-1,-1,-1],"loss_changes":[9.458864E-4,4.058141E-4,3.827989E-4,1.9033466E-4,0E0,3.7959462E-4,2.3595389E-4,0E0,2.357883E-4,0E0,4.3326756E-5,0E0,2.8469448E-4,2.6458449E-5,4.560183E-5,4.8782805E-4,0E0,1.3531881E-4,2.8344606E-5,0E0,0E0,0E0,0E0,0E0,0E0,0E0,0E0,0E0,0E0],"parents":[2147483647,0,0,1,1,2,2,3,3,5,5,6,6,8,8,10,10,12,12,13,13,14,14,15,15,17,17,18,18],"right_children":[2,4,6,8,-1,10,12,-1,14,-1,16,-1,18,20,22,24,-1,26,28,-1,-1,-1,-1,-1,-1,-1,-1,-1,-1],"split_conditions":[5.559705E0,2.9393024E1,1.4137617E2,1.4396073E1,1.692442E-3,1.0474867E2,1.4940297E2,-2.1864942E-3,3.8654766E0,-9.554527E-4,1.3195119E2,-1.3426995E-3,2.77229E1,3.2542276E0,5.386721E0,1.2843213E2,2.588409E-3,2.557135E1,2.8150045E1,-7.81579E-5,8.0455915E-4,-5.7979114E-4,-1.5785935E-3,1.6786034E-3,-1.0226668E-3,-2.4322998E-4,1.6758494E-3,-1.2760111E-3,8.329004E-5],"split_indices":[0,2,1,2,0,1,1,0,0,0,1,0,2,0,0,1,0,2,2,0,0,0,0,0,0,0,0,0,0],"split_type":[0,0,0,0,0,0,0,0,0,0,0,0,0,0,0,0,0,0,0,0,0,0,0,0,0,0,0,0,0],"sum_hessian":[1.19E2,6.4E1,5.5E1,6.2E1,2E0,3.8E1,1.7E1,3E0,5.9E1,2E0,3.6E1,4E0,1.3E1,1E1,4.9E1,2.8E1,8E0,1E1,3E0,3E0,7E0,4.6E1,3E0,2.4E1,4E0,3E0,7E0,2E0,1E0],"tree_param":{"num_deleted":"0","num_feature":"3","num_nodes":"29","size_leaf_vector":"1"}},{"base_weights":[-2.5235051E-5,-1.6497836E-3,2.4315547E-3,-1.3356323E-3,-6.37874E-4,6.276068E-3,-1.0367755E-3,8.952313E-4,-5.3311866E-3,1.1075927E-4,6.750723E-3,1.4922044E-3,-2.5478676E-3,2.788825E-3,-1.2330338E-4,-1.7300538E-3,-7.1411475E-4,2.482403E-3,1.6040937E-3,3.9889193E-3,-1.1561215E-3,-3.3529997E-3,2.266366E-4,3.2119724E-4,1.3435786E-3,-7.1098615E-4,6.137165E-4,6.408543E-5,-3.1402562E-4,-1.9049348E-4,1.0011358E-3,-6.978214E-4,2.2158534E-3,-2.561217E-4,-1.2984509E-3],"categories":[],"categories_nodes":[],"categories_segments":[],"categories_sizes":[],"default_left":[0,0,0,0,0,0,0,0,0,0,0,0,0,0,0,0,0,0,0,0,0,0,0,0,0,0,0,0,0,0,0,0,0,0,0],"id":21,"left_children":[1,3,5,-1,7,9,11,13,15,-1,17,19,21,23,25,-1,27,-1,29,31,-1,33,-1,-1,-1,-1,-1,-1,-1,-1,-1,-1,-1,-1,-1],"loss_changes":[4.7106034E-4,1.8713516E-4,6.5923424E-4,0E0,4.411931E-4,5.202397E-5,1.2983382E-4,9.429653E-5,9.5811265E-6,0E0,9.834091E-5,2.6372337E-4,6.585744E-5,2.5381043E-5,1.9967077E-4,0E0,3.2782145E-6,0E0,5.327905E-5,3.4334772E-4,0E0,2.295681E-5,0E0,0E0,0E0,0E0,0E0,0E0,0E0,0E0,0E0,0E0,0E0,0E0,0E0],"parents":[2147483647,0,0,1,1,2,2,4,4,5,5,6,6,7,7,8,8,10,10,11,11,12,12,13,13,14,14,16,16,18,18,19,19,21,21],"right_children":[2,4,6,-1,8,10,12,14,16,-1,18,20,22,24,26,-1,28,-1,30,32,-1,34,-1,-1,-1,-1,-1,-1,-1,-1,-1,-1,-1,-1,-1],"split_conditions":[5.6593447E0,1.8284443E1,2.6833841E1,-1.3356323E-3,5.2496862E0,2.1981625E1,1.2108575E2,2.146296E1,5.6088047E0,1.1075927E-4,1.4137617E2,3.246256E1,3.175123E1,2.122856E1,2.465223E1,-1.7300538E-3,1.1220454E2,2.482403E-3,8.470891E0,1.138952E2,-1.1561215E-3,2.77229E1,2.266366E-4,3.2119724E-4,1.3435786E-3,-7.1098615E-4,6.137165E-4,6.408543E-5,-3.1402562E-4,-1.9049348E-4,1.0011358E-3,-6.978214E-4,2.2158534E-3,-2.561217E-4,-1.2984509E-3],"split_indices":[0,2,2,0,0,2,1,2,0,0,1,2,2,2,2,0,1,0,0,1,0,2,0,0,0,0,0,0,0,0,0,0,0,0,0],"split_type":[0,0,0,0,0,0,0,0,0,0,0,0,0,0,0,0,0,0,0,0,0,0,0,0,0,0,0,0,0,0,0,0,0,0,0],"sum_hessian":[1.08E2,6.6E1,4.2E1,1.3E1,5.3E1,1.8E1,2.4E1,4.3E1,1E1,2E0,1.6E1,9E0,1.5E1,1.2E1,3.1E1,8E0,2E0,1E1,6E0,7E0,2E0,1.2E1,3E0,1E1,2E0,1.5E1,1.6E1,1E0,1E0,4E0,2E0,3E0,4E0,6E0,6E0],"tree_param":{"num_deleted":"0","num_feature":"3","num_nodes":"35","size_leaf_vector":"1"}},{"base_weights":[-4.809917E-5,-1.0741156E-3,6.6088955E-4,3.5278958E-3,-4.4477638E-4,-2.3381971E-4,6.1871437E-3,-6.4351754E-3,4.6886876E-4,1.4539862E-3,-1.0327252E-3,-7.682163E-4,2.4263086E-3,1.6858877E-4,-7.5248363E-3,4.202899E-3,-7.958019E-4,4.255428E-6,1.0085702E-3,6.111115E-4,-7.8719837E-4,6.0881677E-5,-2.5852937E-3,5.513659E-5,2.197888E-3,-9.5944334E-4,2.4152605E-4],"categories":[],"categories_nodes":[],"categories_segments":[],"categories_sizes":[],"default_left":[0,0,0,0,0,0,0,0,0,0,0,0,0,0,0,0,0,0,0,0,0,0,0,0,0,0,0],"id":22,"left_children":[1,-1,3,5,7,9,11,13,15,17,-1,19,-1,-1,21,23,25,-1,-1,-1,-1,-1,-1,-1,-1,-1,-1],"loss_changes":[2.8480543E-4,0E0,3.0899097E-4,2.7732342E-4,4.146225E-4,1.1167397E-4,2.4256972E-4,9.738849E-5,3.3784102E-4,3.8219812E-5,0E0,6.837333E-5,0E0,0E0,8.4749074E-5,2.1922635E-4,2.2439747E-4,0E0,0E0,0E0,0E0,0E0,0E0,0E0,0E0,0E0,0E0],"parents":[2147483647,0,0,2,2,3,3,4,4,5,5,6,6,7,7,8,8,9,9,11,11,14,14,15,15,16,16],"right_children":[2,-1,4,6,8,10,12,14,16,18,-1,20,-1,-1,22,24,26,-1,-1,-1,-1,-1,-1,-1,-1,-1,-1],"split_conditions":[1.8984201E1,-1.0741156E-3,1.09299934E2,1.0258505E2,1.138952E2,4.509912E0,4.618917E0,5.0211525E0,1.2111172E2,2.9561666E1,-1.0327252E-3,4.316563E0,2.4263086E-3,1.6858877E-4,2.5336147E1,1.182716E2,1.3643292E2,4.255428E-6,1.0085702E-3,6.111115E-4,-7.8719837E-4,6.0881677E-5,-2.5852937E-3,5.513659E-5,2.197888E-3,-9.5944334E-4,2.4152605E-4],"split_indices":[2,0,1,1,1,0,0,0,1,2,0,0,0,0,2,1,1,0,0,0,0,0,0,0,0,0,0],"split_type":[0,0,0,0,0,0,0,0,0,0,0,0,0,0,0,0,0,0,0,0,0,0,0,0,0,0,0],"sum_hessian":[1.04E2,1.4E1,9E1,2.2E1,6.8E1,1.1E1,1.1E1,5E0,6.3E1,9E0,2E0,3E0,8E0,1E0,4E0,1.3E1,5E1,8E0,1E0,1E0,2E0,1E0,3E0,8E0,5E0,1.8E1,3.2E1],"tree_param":{"num_deleted":"0","num_feature":"3","num_nodes":"27","size_leaf_vector":"1"}},{"base_weights":[-6.815189E-4,-1.6068105E-3,6.9829365E-3,-2.126891E-3,5.064534E-3,2.632336E-3,3.9360326E-4,-1.075667E-3,-1.4309675E-3,2.0686616E-3,-4.7917516E-4,-1.6430452E-3,4.915796E-3,-1.443852E-3,-3.0559633E-4,1.7839782E-3,-1.14989285E-4],"categories":[],"categories_nodes":[],"categories_segments":[],"categories_sizes":[],"default_left":[0,0,0,0,0,0,0,0,0,0,0,0,0,0,0,0,0],"id":23,"left_children":[1,3,5,7,9,-1,-1,11,-1,-1,-1,13,15,-1,-1,-1,-1],"loss_changes":[8.5038913E-4,4.147007E-4,7.451337E-5,2.521845E-4,1.648493E-4,0E0,0E0,3.055396E-4,0E0,0E0,0E0,1.239262E-4,5.509492E-5,0E0,0E0,0E0,0E0],"parents":[2147483647,0,0,1,1,2,2,3,3,4,4,7,7,11,11,12,12],"right_children":[2,4,6,8,10,-1,-1,12,-1,-1,-1,14,16,-1,-1,-1,-1],"split_conditions":[3.0898453E1,8.470891E0,1.2232064E2,5.97702E0,1.839952E2,2.632336E-3,3.9360326E-4,5.9219975E0,-1.4309675E-3,2.0686616E-3,-4.7917516E-4,3.2071822E0,1.1514959E2,-1.443852E-3,-3.0559633E-4,1.7839782E-3,-1.14989285E-4],"split_indices":[2,0,1,0,1,0,0,0,0,0,0,0,1,0,0,0,0],"split_type":[0,0,0,0,0,0,0,0,0,0,0,0,0,0,0,0,0],"sum_hessian":[1.07E2,9.9E1,8E0,9.5E1,4E0,4E0,4E0,7.3E1,2.2E1,3E0,1E0,7E1,3E0,6E0,6.4E1,2E0,1E0],"tree_param":{"num_deleted":"0","num_feature":"3","num_nodes":"17","size_leaf_vector":"1"}},{"base_weights":[1.7831662E-3,-1.403253E-3,2.5782543E-3,1.6013144E-3,-4.5409827E-3,5.126948E-3,1.7166734E-3,-9.975926E-4,2.8691476E-3,-1.5256485E-4,-2.214551E-3,-1.3107564E-3,2.2930996E-3,2.8683564E-3,1.2006946E-4,3.202905E-3,-1.2354851E-4,-1.0439341E-3,1.2702777E-3,-4.4380627E-6,3.9360286E-3,-1.4196178E-3,3.0445638E-3,1.4808644E-4,1.091481E-3,3.7825733E-4,-3.48733E-4,8.359802E-4,1.8221169E-3,8.056838E-5,1.7173955E-3],"categories":[],"categories_nodes":[],"categories_segments":[],"categories_sizes":[],"default_left":[0,0,0,0,0,0,0,0,0,0,0,0,0,0,0,0,0,0,0,0,0,0,0,0,0,0,0,0,0,0,0],"id":24,"left_children":[1,3,5,7,9,11,13,-1,15,17,-1,-1,-1,19,21,23,-1,-1,-1,25,27,-1,29,-1,-1,-1,-1,-1,-1,-1,-1],"loss_changes":[3.322418E-4,3.0032828E-4,1.7778005E-4,1.6013446E-4,1.8137175E-4,7.166621E-4,1.508969E-4,0E0,2.5211077E-5,2.3422642E-4,0E0,0E0,0E0,1.4731303E-4,6.396362E-4,9.892799E-6,0E0,0E0,0E0,3.3702327E-5,1.3742247E-6,0E0,2.0063095E-4,0E0,0E0,0E0,0E0,0E0,0E0,0E0,0E0],"parents":[2147483647,0,0,1,1,2,2,3,3,4,4,5,5,6,6,8,8,9,9,13,13,14,14,15,15,19,19,20,20,22,22],"right_children":[2,4,6,8,10,12,14,-1,16,18,-1,-1,-1,20,22,24,-1,-1,-1,26,28,-1,30,-1,-1,-1,-1,-1,-1,-1,-1],"split_conditions":[1.0474867E2,4.509912E0,1.1514959E2,1.486487E0,1.0316925E2,3.927875E0,2.4799658E1,-9.975926E-4,1.0236816E2,1.0258505E2,-2.214551E-3,-1.3107564E-3,2.2930996E-3,1.8984201E1,2.6664827E1,7.90368E1,-1.2354851E-4,-1.0439341E-3,1.2702777E-3,1.3067775E2,2.4581657E1,-1.4196178E-3,7.158159E0,1.4808644E-4,1.091481E-3,3.7825733E-4,-3.48733E-4,8.359802E-4,1.8221169E-3,8.056838E-5,1.7173955E-3],"split_indices":[1,0,1,0,1,0,2,0,1,1,0,0,0,2,2,1,0,0,0,1,2,0,0,0,0,0,0,0,0,0,0],"split_type":[0,0,0,0,0,0,0,0,0,0,0,0,0,0,0,0,0,0,0,0,0,0,0,0,0,0,0,0,0,0,0],"sum_hessian":[1.19E2,2.3E1,9.6E1,1.3E1,1E1,1.8E1,7.8E1,1E0,1.2E1,6E0,4E0,3E0,1.5E1,4.3E1,3.5E1,1.1E1,1E0,4E0,2E0,1.3E1,3E1,1.2E1,2.3E1,3E0,8E0,6E0,7E0,2.7E1,3E0,1.4E1,9E0],"tree_param":{"num_deleted":"0","num_feature":"3","num_nodes":"31","size_leaf_vector":"1"}},{"base_weights":[1.2924463E-3,7.990505E-4,1.8664786E-3,1.2200599E-3,-1.4231275E-3,-9.4771275E-4,1.4068591E-3,2.404158E-3,-8.317629E-4,3.3694474E-4,1.5879576E-3,-1.1708941E-3,-6.13112E-5],"categories":[],"categories_nodes":[],"categories_segments":[],"categories_sizes":[],"default_left":[0,0,0,0,0,0,0,0,0,0,0,0,0],"id":25,"left_children":[1,3,-1,5,-1,-1,7,9,11,-1,-1,-1,-1],"loss_changes":[2.621217E-4,2.926323E-4,0E0,1.11385045E-4,0E0,0E0,2.511166E-4,2.515415E-4,6.7305475E-5,0E0,0E0,0E0,0E0],"parents":[2147483647,0,0,1,1,3,3,6,6,7,7,8,8],"right_children":[2,4,-1,6,-1,-1,8,10,12,-1,-1,-1,-1],"split_conditions":[8.456867E0,7.505486E0,1.8664786E-3,1.486487E0,-1.4231275E-3,-9.4771275E-4,1.383985E2,1.2757145E2,2.8900614E0,3.3694474E-4,1.5879576E-3,-1.1708941E-3,-6.13112E-5],"split_indices":[0,0,0,0,0,0,1,1,0,0,0,0,0],"split_type":[0,0,0,0,0,0,0,0,0,0,0,0,0],"sum_hessian":[1.13E2,1.08E2,5E0,1.04E2,4E0,1E0,1.03E2,7.1E1,3.2E1,5.4E1,1.7E1,1E0,3.1E1],"tree_param":{"num_deleted":"0","num_feature":"3","num_nodes":"13","size_leaf_vector":"1"}},{"base_weights":[-6.021945E-4,-3.3352107E-3,1.4112722E-4,-7.032022E-4,-4.6021035E-3,-3.4460897E-4,1.9102481E-3,1.3282695E-3,-1.1920944E-3,-1.4962964E-3,-5.898392E-3,1.8448508E-3,-9.1184856E-4,-9.0032705E-4,8.818511E-4,-2.8434545E-3,6.661222E-4,-1.3421774E-4,-6.2197954E-3,8.1750326E-4,-2.7952048E-3,-9.2298974E-4,-2.5583804E-5,-2.5657756E-4,-2.107918E-3,-7.6977034E-5,1.7659884E-3,2.2797626E-4,-1.2977446E-3],"categories":[],"categories_nodes":[],"categories_segments":[],"categories_sizes":[],"default_left":[0,0,0,0,0,0,0,0,0,0,0,0,0,0,0,0,0,0,0,0,0,0,0,0,0,0,0,0,0],"id":26,"left_children":[1,3,5,7,9,11,-1,13,-1,15,17,-1,19,-1,-1,21,-1,-1,23,25,27,-1,-1,-1,-1,-1,-1,-1,-1],"loss_changes":[2.664498E-4,7.718417E-5,3.3457924E-4,1.2604764E-4,2.833968E-5,4.1114364E-4,0E0,1.3479152E-4,0E0,9.1651986E-5,5.358219E-6,0E0,3.3712405E-4,0E0,0E0,5.762726E-6,0E0,0E0,1.3223325E-5,3.1245616E-4,2.8307043E-4,0E0,0E0,0E0,0E0,0E0,0E0,0E0,0E0],"parents":[2147483647,0,0,1,1,2,2,3,3,4,4,5,5,7,7,9,9,10,10,12,12,15,15,18,18,19,19,20,20],"right_children":[2,4,6,8,10,12,-1,14,-1,16,18,-1,20,-1,-1,22,-1,-1,24,26,28,-1,-1,-1,-1,-1,-1,-1,-1],"split_conditions":[1.07895195E2,2.4011057E1,9.138753E0,1.0236816E2,1.0316925E2,1.1201498E2,1.9102481E-3,1.486487E0,-1.1920944E-3,1.00748436E2,4.3191385E0,1.8448508E-3,2.4809132E1,-9.0032705E-4,8.818511E-4,9.8265884E1,6.661222E-4,-1.3421774E-4,2.7353241E1,5.9219975E0,5.97702E0,-9.2298974E-4,-2.5583804E-5,-2.5657756E-4,-2.107918E-3,-7.6977034E-5,1.7659884E-3,2.2797626E-4,-1.2977446E-3],"split_indices":[1,2,0,1,1,1,0,0,0,1,0,0,2,0,0,1,0,0,2,0,0,0,0,0,0,0,0,0,0],"split_type":[0,0,0,0,0,0,0,0,0,0,0,0,0,0,0,0,0,0,0,0,0,0,0,0,0,0,0,0,0],"sum_hessian":[1.25E2,2.3E1,1.02E2,1E1,1.3E1,9.9E1,3E0,8E0,2E0,7E0,6E0,4E0,9.5E1,1E0,7E0,6E0,1E0,1E0,5E0,5.1E1,4.4E1,5E0,1E0,2E0,3E0,4.6E1,5E0,1.4E1,3E1],"tree_param":{"num_deleted":"0","num_feature":"3","num_nodes":"29","size_leaf_vector":"1"}},{"base_weights":[-1.3675618E-3,-1.776159E-3,1.7265975E-3,-2.014238E-3,3.2337648E-3,1.4655879E-3,-1.1242673E-3,-1.4895255E-3,-1.7036259E-3,1.0864601E-3,4.5357643E-5,-1.9453858E-3,8.393689E-4,-1.9595027E-3,2.517817E-3,-9.2630397E-4,2.2321386E-4,-5.45086E-4,1.0908336E-3],"categories":[],"categories_nodes":[],"categories_segments":[],"categories_sizes":[],"default_left":[0,0,0,0,0,0,0,0,0,0,0,0,0,0,0,0,0,0,0],"id":27,"left_children":[1,3,5,7,9,-1,11,13,-1,-1,-1,-1,-1,15,17,-1,-1,-1,-1],"loss_changes":[1.7210246E-4,1.6615662E-4,1.805471E-4,1.6921657E-4,5.629532E-6,0E0,3.6403077E-4,2.1865434E-4,0E0,0E0,0E0,0E0,0E0,3.0124464E-4,9.605137E-5,0E0,0E0,0E0,0E0],"parents":[2147483647,0,0,1,1,2,2,3,3,4,4,6,6,7,7,13,13,14,14],"right_children":[2,4,6,8,10,-1,12,14,-1,-1,-1,-1,-1,16,18,-1,-1,-1,-1],"split_conditions":[3.0102455E1,9.138753E0,1.06812416E2,7.505486E0,1.5423907E2,1.4655879E-3,1.1537424E2,6.605372E0,-1.7036259E-3,1.0864601E-3,4.5357643E-5,-1.9453858E-3,8.393689E-4,1.3711722E2,1.04256165E2,-9.2630397E-4,2.2321386E-4,-5.45086E-4,1.0908336E-3],"split_indices":[2,0,1,0,1,0,1,0,0,0,0,0,0,1,1,0,0,0,0],"split_type":[0,0,0,0,0,0,0,0,0,0,0,0,0,0,0,0,0,0,0],"sum_hessian":[1.19E2,1.07E2,1.2E1,1.05E2,2E0,4E0,8E0,9.8E1,7E0,1E0,1E0,2E0,6E0,9E1,8E0,6.3E1,2.7E1,1E0,7E0],"tree_param":{"num_deleted":"0","num_feature":"3","num_nodes":"19","size_leaf_vector":"1"}},{"base_weights":[1.9010348E-4,-4.2595802E-4,1.3448581E-3,-3.4609773E-5,-2.497175E-3,-5.529538E-4,1.4080021E-3,-1.2439191E-4,-1.5193482E-3,-2.291678E-3,8.435805E-5,-2.4926923E-3,1.0517412E-3,-1.5162388E-4,-1.8654524E-3,-1.691949E-4,1.2869101E-3,-1.2229566E-3,8.999556E-5],"categories":[],"categories_nodes":[],"categories_segments":[],"categories_sizes":[],"default_left":[0,0,0,0,0,0,0,0,0,0,0,0,0,0,0,0,0,0,0],"id":28,"left_children":[1,3,-1,5,7,9,-1,11,-1,13,15,17,-1,-1,-1,-1,-1,-1,-1],"loss_changes":[3.5863506E-4,9.683592E-5,0E0,2.7275068E-4,1.1259223E-4,1.11777554E-4,0E0,1.7265536E-4,0E0,1.7365789E-4,2.2476327E-4,5.919198E-5,0E0,0E0,0E0,0E0,0E0,0E0,0E0],"parents":[2147483647,0,0,1,1,3,3,4,4,5,5,7,7,9,9,10,10,11,11],"right_children":[2,4,-1,6,8,10,-1,12,-1,14,16,18,-1,-1,-1,-1,-1,-1,-1],"split_conditions":[3.0102455E1,6.787025E0,1.3448581E-3,6.364973E0,2.7060163E1,1.07895195E2,1.4080021E-3,8.470891E0,-1.5193482E-3,2.7762602E1,2.8432222E1,1.5421748E2,1.0517412E-3,-1.5162388E-4,-1.8654524E-3,-1.691949E-4,1.2869101E-3,-1.2229566E-3,8.999556E-5],"split_indices":[2,0,0,0,2,1,0,0,0,2,2,1,0,0,0,0,0,0,0],"split_type":[0,0,0,0,0,0,0,0,0,0,0,0,0,0,0,0,0,0,0],"sum_hessian":[1.27E2,1.15E2,1.2E1,1.01E2,1.4E1,9.5E1,6E0,1E1,4E0,2.2E1,7.3E1,7E0,3E0,1.9E1,3E0,6.7E1,6E0,3E0,4E0],"tree_param":{"num_deleted":"0","num_feature":"3","num_nodes":"19","size_leaf_vector":"1"}},{"base_weights":[4.0235426E-4,-2.04471E-4,2.4543938E-3,-1.1112012E-3,2.2534703E-5,3.2013026E-3,7.399718E-4,1.1197377E-3,-1.6410325E-3,1.3858964E-3,1.3777475E-3,-3.8245958E-4,8.227006E-4,-7.135226E-5,3.992624E-3,-1.0739639E-3,2.4381604E-3,1.1685353E-3,-1.0272696E-3,8.2720775E-4,-3.829129E-4,1.8736263E-4,1.6181747E-3,-5.3702167E-4,1.9693973E-4,8.031241E-4,-9.4980005E-6,-2.9294295E-4,7.9930824E-4],"categories":[],"categories_nodes":[],"categories_segments":[],"categories_sizes":[],"default_left":[0,0,0,0,0,0,0,0,0,0,0,0,0,0,0,0,0,0,0,0,0,0,0,0,0,0,0,0,0],"id":29,"left_children":[1,3,5,-1,7,9,11,13,-1,-1,15,17,-1,19,21,23,25,27,-1,-1,-1,-1,-1,-1,-1,-1,-1,-1,-1],"loss_changes":[1.53182E-4,7.826991E-5,2.4010122E-5,0E0,6.152003E-4,1.47323735E-5,3.8956896E-5,2.9228308E-4,0E0,0E0,5.208987E-5,8.605552E-5,0E0,2.3916038E-4,1.01148005E-4,1.5789006E-5,7.5048665E-6,5.4719745E-5,0E0,0E0,0E0,0E0,0E0,0E0,0E0,0E0,0E0,0E0,0E0],"parents":[2147483647,0,0,1,1,2,2,4,4,5,5,6,6,7,7,10,10,11,11,13,13,14,14,15,15,16,16,17,17],"right_children":[2,4,6,-1,8,10,12,14,-1,-1,16,18,-1,20,22,24,26,28,-1,-1,-1,-1,-1,-1,-1,-1,-1,-1,-1],"split_conditions":[6.425143E0,9.118171E0,2.77229E1,-1.1112012E-3,5.97702E0,6.6334023E0,8.987322E0,2.6519955E1,-1.6410325E-3,1.3858964E-3,7.097009E0,1.7655891E2,8.227006E-4,3.911339E0,1.0369149E2,2.383503E1,9.213772E0,7.20758E0,-1.0272696E-3,8.2720775E-4,-3.829129E-4,1.8736263E-4,1.6181747E-3,-5.3702167E-4,1.9693973E-4,8.031241E-4,-9.4980005E-6,-2.9294295E-4,7.9930824E-4],"split_indices":[0,2,2,0,0,0,0,2,0,0,0,1,0,0,1,2,0,0,0,0,0,0,0,0,0,0,0,0,0],"split_type":[0,0,0,0,0,0,0,0,0,0,0,0,0,0,0,0,0,0,0,0,0,0,0,0,0,0,0,0,0],"sum_hessian":[1.16E2,9.3E1,2.3E1,1E0,9.2E1,1.3E1,1E1,8E1,1.2E1,3E0,1E1,9E0,1E0,6E1,2E1,3E0,7E0,8E0,1E0,1.6E1,4.4E1,8E0,1.2E1,2E0,1E0,6E0,1E0,4E0,4E0],"tree_param":{"num_deleted":"0","num_feature":"3","num_nodes":"29","size_leaf_vector":"1"}},{"base_weights":[6.72346E-5,-3.9970895E-4,4.028355E-3,8.60271E-5,-1.138767E-3,1.851829E-3,-3.5402842E-4,-3.2765328E-4,2.5945911E-3,-1.277864E-3,3.518328E-4,1.0838634E-3,-8.126251E-4,4.7583813E-3,-3.5514208E-4,-4.2704216E-4,-1.2929738E-5,-1.1016261E-3,2.1974464E-4,-1.3379306E-4,1.7062986E-3,-4.1929435E-4,3.7166863E-4],"categories":[],"categories_nodes":[],"categories_segments":[],"categories_sizes":[],"default_left":[0,0,0,0,0,0,0,0,0,0,0,0,0,0,0,0,0,0,0,0,0,0,0],"id":30,"left_children":[1,3,5,7,-1,-1,9,11,13,15,-1,-1,17,19,21,-1,-1,-1,-1,-1,-1,-1,-1],"loss_changes":[2.2815556E-4,1.8474364E-4,1.3309573E-4,1.101005E-4,0E0,0E0,2.0187887E-5,1.9049586E-4,1.04188555E-4,1.1315997E-6,0E0,0E0,3.9341173E-4,5.6209596E-5,2.693742E-5,0E0,0E0,0E0,0E0,0E0,0E0,0E0,0E0],"parents":[2147483647,0,0,1,1,2,2,3,3,6,6,7,7,8,8,9,9,12,12,13,13,14,14],"right_children":[2,4,6,8,-1,-1,10,12,14,16,-1,-1,18,20,22,-1,-1,-1,-1,-1,-1,-1,-1],"split_conditions":[3.0898453E1,7.505486E0,1.2232064E2,6.425143E0,-1.138767E-3,1.851829E-3,3.3935123E1,9.545434E1,1.3689227E2,1.3195119E2,3.518328E-4,1.0838634E-3,1.138952E2,1.26404175E2,7.097009E0,-4.2704216E-4,-1.2929738E-5,-1.1016261E-3,2.1974464E-4,-1.3379306E-4,1.7062986E-3,-4.1929435E-4,3.7166863E-4],"split_indices":[2,0,1,0,0,0,2,1,1,1,0,0,1,1,0,0,0,0,0,0,0,0,0],"split_type":[0,0,0,0,0,0,0,0,0,0,0,0,0,0,0,0,0,0,0,0,0,0,0],"sum_hessian":[1.14E2,1.06E2,8E0,9.7E1,9E0,4E0,4E0,8.7E1,1E1,3E0,1E0,6E0,8.1E1,4E0,6E0,2E0,1E0,2.6E1,5.5E1,1E0,3E0,4E0,2E0],"tree_param":{"num_deleted":"0","num_feature":"3","num_nodes":"23","size_leaf_vector":"1"}},{"base_weights":[9.495395E-5,1.5074749E-3,-4.535406E-4,-8.9696795E-4,2.0794405E-3,-1.3683804E-3,1.6027405E-4,2.3022643E-3,-8.3651394E-5,1.0374035E-3,-2.3915484E-3,-6.8746996E-4,8.5119595E-4,-1.0849536E-4,6.431554E-5,1.9554063E-3,-5.5763713E-4,-3.556983E-3,6.05027E-4,1.4908679E-3,-5.3696036E-5,7.259943E-4,-6.3790876E-4,-1.6467423E-3,1.556811E-4],"categories":[],"categories_nodes":[],"categories_segments":[],"categories_sizes":[],"default_left":[0,0,0,0,0,0,0,0,0,0,0,0,0,0,0,0,0,0,0,0,0,0,0,0,0],"id":31,"left_children":[1,3,5,-1,7,-1,9,11,13,15,17,-1,-1,-1,-1,19,21,23,-1,-1,-1,-1,-1,-1,-1],"loss_changes":[9.716448E-5,1.2111843E-4,2.3310115E-4,0E0,1.7350554E-5,0E0,2.004204E-4,1.0870608E-4,1.0504959E-6,1.0209265E-4,1.5403247E-4,0E0,0E0,0E0,0E0,2.810831E-4,1.5651858E-4,1.7174898E-4,0E0,0E0,0E0,0E0,0E0,0E0,0E0],"parents":[2147483647,0,0,1,1,2,2,4,4,6,6,7,7,8,8,9,9,10,10,15,15,16,16,17,17],"right_children":[2,4,6,-1,8,-1,10,12,14,16,18,-1,-1,-1,-1,20,22,24,-1,-1,-1,-1,-1,-1,-1],"split_conditions":[4.509912E0,3.1460653E1,4.8532705E0,-8.9696795E-4,1.676907E2,-1.3683804E-3,2.8753622E1,1.2232245E1,4.1466594E0,6.070584E0,8.456867E0,-6.8746996E-4,8.5119595E-4,-1.0849536E-4,6.431554E-5,1.2111172E2,2.505813E1,3.0898453E1,6.05027E-4,1.4908679E-3,-5.3696036E-5,7.259943E-4,-6.3790876E-4,-1.6467423E-3,1.556811E-4],"split_indices":[0,1,0,0,1,0,2,2,0,0,0,0,0,0,0,1,2,2,0,0,0,0,0,0,0],"split_type":[0,0,0,0,0,0,0,0,0,0,0,0,0,0,0,0,0,0,0,0,0,0,0,0,0],"sum_hessian":[1.16E2,3E1,8.6E1,1E0,2.9E1,7E0,7.9E1,2.6E1,3E0,6.1E1,1.8E1,1E0,2.5E1,1E0,2E0,3.8E1,2.3E1,1.5E1,3E0,1.3E1,2.5E1,7E0,1.6E1,9E0,6E0],"tree_param":{"num_deleted":"0","num_feature":"3","num_nodes":"25","size_leaf_vector":"1"}},{"base_weights":[-7.0702273E-4,-1.5016425E-3,6.9489435E-4,-6.6255557E-4,-4.7558276E-3,2.2146483E-3,-1.6735874E-3,-4.1511026E-5,-3.6987283E-3,7.127002E-4,-1.8875734E-3,5.1081255E-3,1.0346117E-3,-1.1339486E-3,-1.5558137E-4,-4.5910833E-4,3.1686127E-3,-1.387725E-3,-8.1986026E-4,-2.9854392E-4,6.333813E-4,5.609823E-3,7.981211E-5,-1.6225217E-3,2.2488183E-3,1.4966548E-3,-2.8474173E-3,2.587681E-4,-7.2124635E-4,1.0995192E-3,-1.5327336E-5,-8.960495E-6,-3.0727132E-4,1.1855811E-4,1.84488E-3,2.554308E-4,-1.1993409E-3,9.5086213E-4,-3.3781205E-5,-1.4768314E-3,4.346398E-5],"categories":[],"categories_nodes":[],"categories_segments":[],"categories_sizes":[],"default_left":[0,0,0,0,0,0,0,0,0,0,0,0,0,0,0,0,0,0,0,0,0,0,0,0,0,0,0,0,0,0,0,0,0,0,0,0,0,0,0,0,0],"id":32,"left_children":[1,3,5,7,9,11,13,15,17,19,-1,21,23,-1,25,27,29,-1,31,-1,-1,33,-1,35,37,-1,39,-1,-1,-1,-1,-1,-1,-1,-1,-1,-1,-1,-1,-1,-1],"loss_changes":[1.455803E-4,2.0814964E-4,1.94908E-4,1.3310982E-4,1.5682308E-4,8.283644E-5,6.739994E-5,9.306818E-5,1.3062934E-5,2.9613475E-5,0E0,1.1971904E-5,1.1180672E-4,0E0,3.2028998E-4,1.6718173E-4,1.3723678E-5,0E0,1.3001472E-6,0E0,0E0,7.551731E-6,0E0,8.75355E-5,4.9617214E-5,0E0,9.6717165E-5,0E0,0E0,0E0,0E0,0E0,0E0,0E0,0E0,0E0,0E0,0E0,0E0,0E0,0E0],"parents":[2147483647,0,0,1,1,2,2,3,3,4,4,5,5,6,6,7,7,8,8,9,9,11,11,12,12,14,14,15,15,16,16,18,18,21,21,23,23,24,24,26,26],"right_children":[2,4,6,8,10,12,14,16,18,20,-1,22,24,-1,26,28,30,-1,32,-1,-1,34,-1,36,38,-1,40,-1,-1,-1,-1,-1,-1,-1,-1,-1,-1,-1,-1,-1,-1],"split_conditions":[2.6664827E1,2.5336147E1,2.9569769E1,1.739944E2,1.0596608E2,2.6833841E1,3.0102455E1,2.5166042E1,1.8984201E1,4.1815286E0,-1.8875734E-3,1.3234938E2,1.04256165E2,-1.1339486E-3,5.8208995E0,2.2846516E1,2.5322235E1,-1.387725E-3,5.736231E0,-2.9854392E-4,6.333813E-4,1.01793465E2,7.981211E-5,5.1966662E0,6.171437E0,1.4966548E-3,1.1537424E2,2.587681E-4,-7.2124635E-4,1.0995192E-3,-1.5327336E-5,-8.960495E-6,-3.0727132E-4,1.1855811E-4,1.84488E-3,2.554308E-4,-1.1993409E-3,9.5086213E-4,-3.3781205E-5,-1.4768314E-3,4.346398E-5],"split_indices":[2,2,2,1,1,2,2,2,2,0,0,1,1,0,0,2,2,0,0,0,0,1,0,0,0,0,1,0,0,0,0,0,0,0,0,0,0,0,0,0,0],"split_type":[0,0,0,0,0,0,0,0,0,0,0,0,0,0,0,0,0,0,0,0,0,0,0,0,0,0,0,0,0,0,0,0,0,0,0,0,0,0,0,0,0],"sum_hessian":[1.21E2,7.7E1,4.4E1,6.6E1,1.1E1,2.7E1,1.7E1,5.9E1,7E0,3E0,8E0,3E0,2.4E1,4E0,1.3E1,5.6E1,3E0,3E0,4E0,2E0,1E0,2E0,1E0,7E0,1.7E1,3E0,1E1,3.5E1,2.1E1,2E0,1E0,2E0,2E0,1E0,1E0,5E0,2E0,1.1E1,6E0,4E0,6E0],"tree_param":{"num_deleted":"0","num_feature":"3","num_nodes":"41","size_leaf_vector":"1"}},{"base_weights":[4.4658143E-4,-8.650579E-4,6.094047E-4,7.621582E-4,2.1557945E-4,-8.047212E-4,1.4120716E-3,-7.922913E-5,-2.548349E-3,1.976621E-3,5.649527E-4,-1.5337787E-4,7.7086367E-4,5.3070695E-4,-1.2675179E-3,-1.1808876E-3,6.2103785E-4],"categories":[],"categories_nodes":[],"categories_segments":[],"categories_sizes":[],"default_left":[0,0,0,0,0,0,0,0,0,0,0,0,0,0,0,0,0],"id":33,"left_children":[1,-1,3,-1,5,7,9,11,13,-1,15,-1,-1,-1,-1,-1,-1],"loss_changes":[6.843027E-5,0E0,8.0158774E-5,0E0,1.2287666E-4,6.856484E-5,1.8310992E-4,5.691998E-5,1.5319485E-4,0E0,3.45625E-4,0E0,0E0,0E0,0E0,0E0,0E0],"parents":[2147483647,0,0,2,2,4,4,5,5,6,6,7,7,8,8,10,10],"right_children":[2,-1,4,-1,6,8,10,12,14,-1,16,-1,-1,-1,-1,-1,-1],"split_conditions":[3.1460653E1,-8.650579E-4,1.0316559E2,7.621582E-4,2.5024946E1,5.386721E0,4.7674313E0,5.350039E0,2.318964E1,1.976621E-3,1.12797935E2,-1.5337787E-4,7.7086367E-4,5.3070695E-4,-1.2675179E-3,-1.1808876E-3,6.2103785E-4],"split_indices":[1,0,1,0,2,0,0,0,2,0,1,0,0,0,0,0,0],"split_type":[0,0,0,0,0,0,0,0,0,0,0,0,0,0,0,0,0],"sum_hessian":[1.05E2,1E0,1.04E2,1.3E1,9.1E1,5E1,4.1E1,3.9E1,1.1E1,1E0,4E1,3.7E1,2E0,3E0,8E0,8E0,3.2E1],"tree_param":{"num_deleted":"0","num_feature":"3","num_nodes":"17","size_leaf_vector":"1"}},{"base_weights":[2.892317E-4,-2.5803805E-3,1.1069577E-3,-1.140693E-3,-3.3936603E-3,-3.1556254E-3,1.4014513E-3,-6.84726E-4,6.6469823E-7,-1.2723382E-3,7.253162E-4,1.9354748E-5,-1.0985185E-3,2.2885157E-3,-5.787734E-4,-1.2085837E-3,1.6629659E-3,6.5790117E-4,-4.0404053E-4,1.0306337E-3,4.12228E-3,-1.509731E-3,8.537879E-4,2.5262087E-4,-5.504052E-4,6.6503463E-4,-1.10687324E-4,-2.325709E-4,4.501374E-4,2.1130482E-3,6.6301745E-4,1.2498178E-3,-8.735601E-4],"categories":[],"categories_nodes":[],"categories_segments":[],"categories_sizes":[],"default_left":[0,0,0,0,0,0,0,0,0,0,0,0,0,0,0,0,0,0,0,0,0,0,0,0,0,0,0,0,0,0,0,0,0],"id":34,"left_children":[1,3,5,7,9,11,13,-1,15,-1,17,-1,-1,19,21,23,25,-1,-1,27,29,31,-1,-1,-1,-1,-1,-1,-1,-1,-1,-1,-1],"loss_changes":[3.052549E-4,1.4599573E-5,1.476426E-4,2.3463726E-5,7.123193E-5,1.4218975E-5,1.7701156E-4,0E0,3.8191058E-5,0E0,3.6056263E-5,0E0,0E0,1.3561003E-4,1.2988473E-4,2.1847716E-5,1.3091987E-5,0E0,0E0,4.5692792E-5,6.74036E-5,2.994019E-4,0E0,0E0,0E0,0E0,0E0,0E0,0E0,0E0,0E0,0E0,0E0],"parents":[2147483647,0,0,1,1,2,2,3,3,4,4,5,5,6,6,8,8,10,10,13,13,14,14,15,15,16,16,19,19,20,20,21,21],"right_children":[2,4,6,8,10,12,14,-1,16,-1,18,-1,-1,20,22,24,26,-1,-1,28,30,32,-1,-1,-1,-1,-1,-1,-1,-1,-1,-1,-1],"split_conditions":[1.07895195E2,4.567817E0,1.493389E1,7.90368E1,2.9954319E1,2.5843828E0,2.6780878E1,-6.84726E-4,4.1815286E0,-1.2723382E-3,3.1763248E1,1.9354748E-5,-1.0985185E-3,2.465223E1,8.456867E0,2.775409E0,9.545434E1,6.5790117E-4,-4.0404053E-4,1.197452E2,5.0271106E0,1.1350375E2,8.537879E-4,2.5262087E-4,-5.504052E-4,6.6503463E-4,-1.10687324E-4,-2.325709E-4,4.501374E-4,2.1130482E-3,6.6301745E-4,1.2498178E-3,-8.735601E-4],"split_indices":[1,0,2,1,2,0,2,0,0,0,2,0,0,2,0,0,1,0,0,1,0,1,0,0,0,0,0,0,0,0,0,0,0],"split_type":[0,0,0,0,0,0,0,0,0,0,0,0,0,0,0,0,0,0,0,0,0,0,0,0,0,0,0,0,0,0,0,0,0],"sum_hessian":[1.19E2,2.4E1,9.5E1,1.3E1,1.1E1,3E0,9.2E1,4E0,9E0,9E0,2E0,1E0,2E0,6.3E1,2.9E1,6E0,3E0,1E0,1E0,4.2E1,2.1E1,2.5E1,4E0,1E0,5E0,2E0,1E0,8E0,3.4E1,3E0,1.8E1,3E0,2.2E1],"tree_param":{"num_deleted":"0","num_feature":"3","num_nodes":"33","size_leaf_vector":"1"}},{"base_weights":[-6.6966924E-5,-5.086088E-4,1.6196136E-3,-2.366026E-4,-2.5418703E-3,-6.072223E-6,-2.92275E-3,-3.2017506E-3,-3.965199E-4,-2.9063266E-4,3.348791E-3,-1.1590362E-3,3.1689662E-5,-1.2325692E-3,3.6471658E-5,2.6118234E-4,-3.2971223E-4,-4.9558864E-4,6.945111E-5,1.3074651E-3,-2.3633093E-4],"categories":[],"categories_nodes":[],"categories_segments":[],"categories_sizes":[],"default_left":[0,0,0,0,0,0,0,0,0,0,0,0,0,0,0,0,0,0,0,0,0],"id":35,"left_children":[1,3,-1,5,7,9,11,13,15,17,19,-1,-1,-1,-1,-1,-1,-1,-1,-1,-1],"loss_changes":[3.2270484E-4,6.501928E-5,0E0,7.0504466E-5,1.3471654E-5,1.09879096E-4,2.7679816E-5,3.2633776E-5,1.2795819E-5,7.725693E-5,5.4746328E-5,0E0,0E0,0E0,0E0,0E0,0E0,0E0,0E0,0E0,0E0],"parents":[2147483647,0,0,1,1,3,3,4,4,5,5,6,6,7,7,8,8,9,9,10,10],"right_children":[2,4,-1,6,8,10,12,14,16,18,20,-1,-1,-1,-1,-1,-1,-1,-1,-1,-1],"split_conditions":[8.470891E0,1.7655891E2,1.6196136E-3,3.246256E1,1.9460599E2,3.0898453E1,6.83628E0,1.8984201E1,1.8647669E1,4.3191385E0,1.1903566E2,-1.1590362E-3,3.1689662E-5,-1.2325692E-3,3.6471658E-5,2.6118234E-4,-3.2971223E-4,-4.9558864E-4,6.945111E-5,1.3074651E-3,-2.3633093E-4],"split_indices":[0,1,0,2,1,2,0,2,2,0,1,0,0,0,0,0,0,0,0,0,0],"split_type":[0,0,0,0,0,0,0,0,0,0,0,0,0,0,0,0,0,0,0,0,0],"sum_hessian":[1.23E2,1.18E2,5E0,1.09E2,9E0,1.05E2,4E0,5E0,4E0,1.01E2,4E0,2E0,2E0,3E0,2E0,1E0,3E0,2.5E1,7.6E1,3E0,1E0],"tree_param":{"num_deleted":"0","num_feature":"3","num_nodes":"21","size_leaf_vector":"1"}},{"base_weights":[4.2869596E-4,1.0475339E-3,-9.0421806E-4,8.527413E-5,7.026127E-3,-3.4129592E-3,1.2959609E-3,5.3819583E-4,-3.7867725E-3,-1.1858121E-4,7.880468E-3,-1.0549334E-3,-1.3374925E-3,1.0013203E-3,1.6615336E-4,-1.9339933E-3,8.882401E-4,-1.3957757E-3,-2.1612218E-4,2.642172E-3,-6.936193E-5,-1.0161181E-3,1.3382345E-3,1.2416956E-3,-2.0772384E-3,-7.5462123E-4,1.9400567E-4,5.041649E-4,-2.0543968E-4,3.065646E-4,-3.8220736E-4,-1.08625E-4,5.1849487E-4,-4.6832563E-4,5.5971235E-4,-6.926693E-4,-1.1198223E-5],"categories":[],"categories_nodes":[],"categories_segments":[],"categories_sizes":[],"default_left":[0,0,0,0,0,0,0,0,0,0,0,0,0,0,0,0,0,0,0,0,0,0,0,0,0,0,0,0,0,0,0,0,0,0,0,0,0],"id":36,"left_children":[1,3,5,7,9,11,13,15,17,-1,19,21,-1,-1,23,25,27,-1,29,-1,-1,-1,31,33,35,-1,-1,-1,-1,-1,-1,-1,-1,-1,-1,-1,-1],"loss_changes":[1.0701838E-4,4.975118E-4,2.5394183E-4,1.5048884E-4,9.165943E-5,2.8248061E-5,5.7204204E-5,7.435781E-5,2.2796012E-5,0E0,9.2875736E-5,9.5218624E-5,0E0,0E0,6.597946E-5,2.4638157E-5,9.299755E-5,0E0,1.5677324E-5,0E0,0E0,0E0,9.7615975E-6,4.60441E-5,3.822155E-6,0E0,0E0,0E0,0E0,0E0,0E0,0E0,0E0,0E0,0E0,0E0,0E0],"parents":[2147483647,0,0,1,1,2,2,3,3,4,4,5,5,6,6,7,7,8,8,10,10,11,11,14,14,15,15,16,16,18,18,22,22,23,23,24,24],"right_children":[2,4,6,8,10,12,14,16,18,-1,20,22,-1,-1,24,26,28,-1,30,-1,-1,-1,32,34,36,-1,-1,-1,-1,-1,-1,-1,-1,-1,-1,-1,-1],"split_conditions":[2.6833841E1,2.5983746E1,2.87354E1,2.5336147E1,9.6177475E1,2.7686209E1,2.9444399E1,3.2071822E0,5.064663E0,-1.1858121E-4,1.5423907E2,2.7012573E1,-1.3374925E-3,1.0013203E-3,1.27454384E2,1.6836264E1,1.4451471E2,-1.3957757E-3,1.6226122E2,2.642172E-3,-6.936193E-5,-1.0161181E-3,9.8265884E1,3.790293E0,3.323275E1,-7.5462123E-4,1.9400567E-4,5.041649E-4,-2.0543968E-4,3.065646E-4,-3.8220736E-4,-1.08625E-4,5.1849487E-4,-4.6832563E-4,5.5971235E-4,-6.926693E-4,-1.1198223E-5],"split_indices":[2,2,2,2,1,2,2,0,0,0,1,2,0,0,1,2,1,0,1,0,0,0,1,0,2,0,0,0,0,0,0,0,0,0,0,0,0],"split_type":[0,0,0,0,0,0,0,0,0,0,0,0,0,0,0,0,0,0,0,0,0,0,0,0,0,0,0,0,0,0,0,0,0,0,0,0,0],"sum_hessian":[1.19E2,8.2E1,3.7E1,7.5E1,7E0,1.6E1,2.1E1,7.1E1,4E0,1E0,6E0,8E0,8E0,4E0,1.7E1,6E0,6.5E1,2E0,2E0,5E0,1E0,3E0,5E0,1.3E1,4E0,5E0,1E0,4.3E1,2.2E1,1E0,1E0,1E0,4E0,1E0,1.2E1,3E0,1E0],"tree_param":{"num_deleted":"0","num_feature":"3","num_nodes":"37","size_leaf_vector":"1"}},{"base_weights":[-1.1884039E-3,5.1856425E-4,-1.7025665E-3,-1.1844442E-3,2.0212175E-3,-3.6078124E-4,-2.8077823E-3,-3.7890402E-4,5.9027253E-3,4.2016123E-4,-1.6372353E-3,-1.5928998E-3,-1.520424E-3,5.7087175E-4,-2.0679533E-3,1.958308E-3,-1.7347933E-5,9.739046E-4,-1.4511496E-3,-3.6245915E-3,1.6363249E-3,-2.729064E-3,6.608414E-4,-3.554716E-6,5.238563E-4,5.402029E-4,-1.1030864E-3,6.0179125E-4,6.711509E-5,-7.952482E-4,1.5166105E-4,-1.1745713E-3,-1.6120396E-4,7.4617495E-4,-3.4364613E-4,-7.359786E-5,-1.2792102E-3,1.3498077E-3,-5.5876496E-4],"categories":[],"categories_nodes":[],"categories_segments":[],"categories_sizes":[],"default_left":[0,0,0,0,0,0,0,0,0,0,0,0,0,0,0,0,0,0,0,0,0,0,0,0,0,0,0,0,0,0,0,0,0,0,0,0,0,0,0],"id":37,"left_children":[1,3,5,-1,7,9,11,13,15,17,19,-1,21,23,25,-1,-1,27,29,31,33,35,37,-1,-1,-1,-1,-1,-1,-1,-1,-1,-1,-1,-1,-1,-1,-1,-1],"loss_changes":[1.1499951E-4,2.613936E-4,1.4026533E-4,0E0,2.7203333E-4,5.3281372E-5,1.3033871E-4,4.1195482E-5,4.2864092E-5,4.333432E-5,1.5976964E-4,0E0,1.1974471E-4,1.243131E-5,8.912668E-5,0E0,0E0,2.098345E-5,3.017438E-5,2.0429725E-6,4.0283794E-5,1.01518555E-4,2.2593695E-4,0E0,0E0,0E0,0E0,0E0,0E0,0E0,0E0,0E0,0E0,0E0,0E0,0E0,0E0,0E0,0E0],"parents":[2147483647,0,0,1,1,2,2,4,4,5,5,6,6,7,7,8,8,9,9,10,10,12,12,13,13,14,14,17,17,18,18,19,19,20,20,21,21,22,22],"right_children":[2,4,6,-1,8,10,12,14,16,18,20,-1,22,24,26,-1,-1,28,30,32,34,36,38,-1,-1,-1,-1,-1,-1,-1,-1,-1,-1,-1,-1,-1,-1,-1,-1],"split_conditions":[1.1220454E2,2.2059055E1,5.386721E0,-1.1844442E-3,1.0474867E2,2.225324E1,5.816432E0,5.1966662E0,1.1201498E2,1.739944E2,2.465223E1,-1.5928998E-3,2.87354E1,2.9561666E1,1.0316925E2,1.958308E-3,-1.7347933E-5,3.944101E0,4.145905E0,1.3984988E2,2.676921E1,2.5332417E1,2.9569769E1,-3.554716E-6,5.238563E-4,5.402029E-4,-1.1030864E-3,6.0179125E-4,6.711509E-5,-7.952482E-4,1.5166105E-4,-1.1745713E-3,-1.6120396E-4,7.4617495E-4,-3.4364613E-4,-7.359786E-5,-1.2792102E-3,1.3498077E-3,-5.5876496E-4],"split_indices":[1,2,0,0,1,2,0,0,1,1,2,0,2,2,1,0,0,0,0,1,2,2,2,0,0,0,0,0,0,0,0,0,0,0,0,0,0,0,0],"split_type":[0,0,0,0,0,0,0,0,0,0,0,0,0,0,0,0,0,0,0,0,0,0,0,0,0,0,0,0,0,0,0,0,0,0,0,0,0,0,0],"sum_hessian":[1.21E2,2.8E1,9.3E1,5E0,2.3E1,4.5E1,4.8E1,1.7E1,6E0,3E1,1.5E1,1.1E1,3.7E1,1.3E1,4E0,5E0,1E0,2.5E1,5E0,9E0,6E0,2.3E1,1.4E1,1.2E1,1E0,1E0,3E0,7E0,1.8E1,2E0,3E0,7E0,2E0,5E0,1E0,1.1E1,1.2E1,4E0,1E1],"tree_param":{"num_deleted":"0","num_feature":"3","num_nodes":"39","size_leaf_vector":"1"}},{"base_weights":[-5.055926E-4,-1.4199793E-3,1.1355211E-3,4.0667568E-4,-2.0018653E-3,1.9076474E-3,-9.0383645E-4,-6.4375467E-4,9.802453E-4,-3.8792912E-4,-3.0992585E-3,6.233474E-4,1.0612318E-3,7.5216965E-5,-7.511594E-4,-2.2743652E-3,2.4285361E-4,-1.7097229E-3,-4.0676715E-3,1.7147303E-3,-2.7545756E-3,-1.3340403E-4,4.9766304E-4,-1.02553306E-4,-7.901006E-4,-6.325303E-4,2.928065E-4,-9.774708E-4,5.7973847E-4,-1.5988202E-3,-4.8890343E-4,8.0939865E-4,-3.3274948E-4,-9.426445E-4,1.7300248E-5],"categories":[],"categories_nodes":[],"categories_segments":[],"categories_sizes":[],"default_left":[0,0,0,0,0,0,0,0,0,0,0,0,0,0,0,0,0,0,0,0,0,0,0,0,0,0,0,0,0,0,0,0,0,0,0],"id":38,"left_children":[1,3,5,7,9,11,-1,13,-1,15,17,19,-1,21,-1,23,25,27,29,31,33,-1,-1,-1,-1,-1,-1,-1,-1,-1,-1,-1,-1,-1,-1],"loss_changes":[1.8513435E-4,8.697715E-5,1.728725E-4,7.963413E-5,1.002559E-4,7.479354E-5,0E0,2.9026356E-5,0E0,3.8459628E-5,1.2324599E-5,1.3052838E-4,0E0,2.0155147E-5,0E0,1.0533658E-6,5.68344E-5,1.6120136E-4,8.867413E-6,8.437854E-5,1.0715528E-5,0E0,0E0,0E0,0E0,0E0,0E0,0E0,0E0,0E0,0E0,0E0,0E0,0E0,0E0],"parents":[2147483647,0,0,1,1,2,2,3,3,4,4,5,5,7,7,9,9,10,10,11,11,13,13,15,15,16,16,17,17,18,18,19,19,20,20],"right_children":[2,4,6,8,10,12,-1,14,-1,16,18,20,-1,22,-1,24,26,28,30,32,34,-1,-1,-1,-1,-1,-1,-1,-1,-1,-1,-1,-1,-1,-1],"split_conditions":[5.816432E0,1.0316925E2,1.7655891E2,4.8532705E0,2.1733799E1,1.3643292E2,-9.0383645E-4,1.0236816E2,9.802453E-4,2.8900614E0,5.2496862E0,1.2951854E2,1.0612318E-3,2.9561666E1,-7.511594E-4,1.3898944E2,1.17919395E2,5.064663E0,5.559705E0,3.246256E1,3.323275E1,-1.3340403E-4,4.9766304E-4,-1.02553306E-4,-7.901006E-4,-6.325303E-4,2.928065E-4,-9.774708E-4,5.7973847E-4,-1.5988202E-3,-4.8890343E-4,8.0939865E-4,-3.3274948E-4,-9.426445E-4,1.7300248E-5],"split_indices":[0,1,1,0,2,1,0,1,0,0,0,1,0,2,0,1,1,0,0,2,2,0,0,0,0,0,0,0,0,0,0,0,0,0,0],"split_type":[0,0,0,0,0,0,0,0,0,0,0,0,0,0,0,0,0,0,0,0,0,0,0,0,0,0,0,0,0,0,0,0,0,0,0],"sum_hessian":[1.13E2,7.3E1,4E1,1.8E1,5.5E1,3.6E1,4E0,1.6E1,2E0,2.5E1,3E1,2.4E1,1.2E1,1.5E1,1E0,3E0,2.2E1,1.8E1,1.2E1,2E1,4E0,1.4E1,1E0,2E0,1E0,3E0,1.9E1,1.3E1,5E0,4E0,8E0,1.5E1,5E0,3E0,1E0],"tree_param":{"num_deleted":"0","num_feature":"3","num_nodes":"35","size_leaf_vector":"1"}},{"base_weights":[-3.3093707E-4,-7.924823E-5,-2.2262558E-3,-7.1952067E-4,1.0318309E-3,3.731466E-4,-1.0357772E-3,-1.5691528E-3,3.4215907E-4,-5.2112364E-4,1.4566339E-3,6.676726E-4,-9.9153076E-5,5.136858E-4,-1.1966091E-3,1.8396038E-3,-1.560579E-3,3.0101098E-3,4.1279654E-5,-7.280484E-5,2.9132047E-4,-3.1973285E-4,1.4793054E-3,7.336587E-5,7.3830475E-4,1.7653238E-4,-6.442225E-4,1.1802647E-3,-2.1582619E-4,-8.9852134E-4,5.1028584E-4],"categories":[],"categories_nodes":[],"categories_segments":[],"categories_sizes":[],"default_left":[0,0,0,0,0,0,0,0,0,0,0,0,0,0,0,0,0,0,0,0,0,0,0,0,0,0,0,0,0,0,0],"id":39,"left_children":[1,3,5,7,9,11,-1,13,15,-1,17,19,-1,21,-1,23,25,27,29,-1,-1,-1,-1,-1,-1,-1,-1,-1,-1,-1,-1],"loss_changes":[5.683856E-5,8.338818E-5,5.1069917E-5,6.943524E-5,6.322981E-5,2.9685702E-6,0E0,2.2190448E-4,1.1977629E-4,0E0,8.7327484E-5,3.3878907E-6,0E0,2.14656E-4,0E0,1.9787985E-5,3.0279163E-5,7.9634905E-5,1.5649544E-4,0E0,0E0,0E0,0E0,0E0,0E0,0E0,0E0,0E0,0E0,0E0,0E0],"parents":[2147483647,0,0,1,1,2,2,3,3,4,4,5,5,7,7,8,8,10,10,11,11,13,13,15,15,16,16,17,17,18,18],"right_children":[2,4,6,8,10,12,-1,14,16,-1,18,20,-1,22,-1,24,26,28,30,-1,-1,-1,-1,-1,-1,-1,-1,-1,-1,-1,-1],"split_conditions":[1.7655891E2,2.7012573E1,5.736231E0,1.2808685E2,4.3191385E0,1.9682664E2,-1.0357772E-3,4.7674313E0,1.4451471E2,-5.2112364E-4,5.97702E0,1.7918724E2,-9.9153076E-5,4.706827E0,-1.1966091E-3,1.3528435E2,1.7049112E1,1.1514959E2,1.1537424E2,-7.280484E-5,2.9132047E-4,-3.1973285E-4,1.4793054E-3,7.336587E-5,7.3830475E-4,1.7653238E-4,-6.442225E-4,1.1802647E-3,-2.1582619E-4,-8.9852134E-4,5.1028584E-4],"split_indices":[1,2,0,1,0,1,0,0,1,0,0,1,0,0,0,1,2,1,1,0,0,0,0,0,0,0,0,0,0,0,0],"split_type":[0,0,0,0,0,0,0,0,0,0,0,0,0,0,0,0,0,0,0,0,0,0,0,0,0,0,0,0,0,0,0],"sum_hessian":[1.16E2,1.07E2,9E0,6.9E1,3.8E1,4E0,5E0,3.7E1,3.2E1,3E0,3.5E1,3E0,1E0,2.2E1,1.5E1,1.8E1,1.4E1,1.4E1,2.1E1,1E0,2E0,1.9E1,3E0,7E0,1.1E1,3E0,1.1E1,1.1E1,3E0,6E0,1.5E1],"tree_param":{"num_deleted":"0","num_feature":"3","num_nodes":"31","size_leaf_vector":"1"}},{"base_weights":[-2.5724815E-4,6.574825E-4,-1.4978533E-3,-2.81545E-4,3.7614447E-3,-2.228057E-3,1.03828585E-4,-1.7376101E-3,1.220223E-4,6.0018003E-3,-1.03174E-3,-1.5320147E-3,-1.1384035E-3,1.7301025E-3,-1.5389437E-3,1.0469759E-4,-3.1847768E-3,2.632718E-3,-6.726411E-4,6.388957E-3,6.7795816E-5,-4.5352263E-4,9.929761E-6,5.2172097E-4,-1.4890952E-3,-2.9939215E-4,-2.5297215E-3,-2.8497403E-4,4.1575264E-4,-1.0514234E-3,-4.7250094E-5,1.0629997E-3,-2.4265434E-4,8.0830665E-5,-1.1120955E-3,2.103863E-3,2.8023083E-4,-6.0023525E-4,7.2006136E-5,3.3434632E-4,-2.3952447E-4,3.1288608E-5,-9.519001E-4],"categories":[],"categories_nodes":[],"categories_segments":[],"categories_sizes":[],"default_left":[0,0,0,0,0,0,0,0,0,0,0,0,0,0,0,0,0,0,0,0,0,0,0,0,0,0,0,0,0,0,0,0,0,0,0,0,0,0,0,0,0,0,0],"id":40,"left_children":[1,3,5,7,9,11,13,15,17,19,21,-1,23,-1,25,27,29,31,33,35,-1,-1,-1,-1,37,39,41,-1,-1,-1,-1,-1,-1,-1,-1,-1,-1,-1,-1,-1,-1,-1,-1],"loss_changes":[1.4791134E-4,2.2681271E-4,6.5482134E-5,3.8080216E-5,2.242534E-4,9.012858E-5,2.4904837E-4,3.899296E-5,1.16592906E-4,2.1850836E-5,5.361436E-6,0E0,4.72578E-5,0E0,2.2003624E-5,2.144435E-5,4.9890587E-6,5.8205223E-5,1.3363027E-4,8.086907E-6,0E0,0E0,0E0,0E0,3.1598523E-5,1.503249E-5,2.0293119E-5,0E0,0E0,0E0,0E0,0E0,0E0,0E0,0E0,0E0,0E0,0E0,0E0,0E0,0E0,0E0,0E0],"parents":[2147483647,0,0,1,1,2,2,3,3,4,4,5,5,6,6,7,7,8,8,9,9,10,10,12,12,14,14,15,15,16,16,17,17,18,18,19,19,24,24,25,25,26,26],"right_children":[2,4,6,8,10,12,14,16,18,20,22,-1,24,-1,26,28,30,32,34,36,-1,-1,-1,-1,38,40,42,-1,-1,-1,-1,-1,-1,-1,-1,-1,-1,-1,-1,-1,-1,-1,-1],"split_conditions":[2.5336147E1,2.465223E1,1.3046986E2,3.2542276E0,1.4451471E2,2.5983746E1,5.7208495E0,2.775409E0,3.911339E0,2.5322235E1,6.1267138E0,-1.5320147E-3,2.6139023E1,1.7301025E-3,7.505486E0,1.6836264E1,1.2232245E1,2.146296E1,2.3865541E1,1.383985E2,6.7795816E-5,-4.5352263E-4,9.929761E-6,5.2172097E-4,3.0898453E1,2.5708385E1,1.4951184E2,-2.8497403E-4,4.1575264E-4,-1.0514234E-3,-4.7250094E-5,1.0629997E-3,-2.4265434E-4,8.0830665E-5,-1.1120955E-3,2.103863E-3,2.8023083E-4,-6.0023525E-4,7.2006136E-5,3.3434632E-4,-2.3952447E-4,3.1288608E-5,-9.519001E-4],"split_indices":[2,2,1,0,1,2,0,0,0,2,0,0,2,0,0,2,2,2,2,1,0,0,0,0,2,2,1,0,0,0,0,0,0,0,0,0,0,0,0,0,0,0,0],"split_type":[0,0,0,0,0,0,0,0,0,0,0,0,0,0,0,0,0,0,0,0,0,0,0,0,0,0,0,0,0,0,0,0,0,0,0,0,0,0,0,0,0,0,0],"sum_hessian":[1.21E2,7.1E1,5E1,5.8E1,1.3E1,3.3E1,1.7E1,9E0,4.9E1,8E0,5E0,4E0,2.9E1,1E0,1.6E1,6E0,3E0,9E0,4E1,7E0,1E0,2E0,3E0,1E0,2.8E1,1E1,6E0,4E0,2E0,2E0,1E0,7E0,2E0,3.4E1,6E0,5E0,2E0,2.1E1,7E0,1E0,9E0,2E0,4E0],"tree_param":{"num_deleted":"0","num_feature":"3","num_nodes":"43","size_leaf_vector":"1"}}]},"name":"gbtree"},"learner_model_param":{"base_score":"2.544635E-1","boost_from_average":"1","num_class":"0","num_feature":"3","num_target":"1"},"objective":{"name":"reg:squarederror","reg_loss_param":{"scale_pos_weight":"1"}}},"version":[2,0,3]}